/*!
 * The following copyright notice may not be removed under any circumstances.
 * 
 * Copyright:
 * © 2011 The Monotype Corporation. All Rights Reserved.
 * 
 * Trademark:
 * Arial is a trademark of The Monotype Corporation.
 * 
 * Manufacturer:
 * The Monotype Corporation
 * 
 * Designer:
 * Monotype Type Drawing Office - Robin Nicholas, Patricia Saunders 1982
 */
Cufon.registerFont({"w":1139,"face":{"font-family":"Arial","font-weight":400,"font-stretch":"normal","units-per-em":"2048","panose-1":"2 11 6 4 2 2 2 2 2 4","ascent":"1638","descent":"-410","x-height":"24","bbox":"-981 -2004.02 2631 432.648","underline-thickness":"150","underline-position":"-142","unicode-range":"U+0020-U+2122"},"glyphs":{" ":{"w":569,"k":{"\u03ab":37,"\u03a5":37,"\u03a4":37,"\u039b":113,"\u0394":113,"\u0391":113,"\u0386":113,"Y":37,"T":37,"A":113}},"\u00a0":{"w":569},"!":{"d":"231,-364r-55,-777r0,-325r223,0r0,325r-52,777r-116,0xm184,0r0,-205r207,0r0,205r-207,0","w":569},"\"":{"d":"144,-947r-50,-279r0,-240r205,0r0,240r-45,279r-110,0xm475,-947r-49,-279r0,-240r205,0r0,240r-48,279r-108,0","w":727},"#":{"d":"103,25r87,-426r-169,0r0,-149r199,0r74,-363r-273,0r0,-149r303,0r87,-429r150,0r-87,429r315,0r87,-429r151,0r-87,429r173,0r0,149r-203,0r-75,363r278,0r0,149r-308,0r-87,426r-150,0r86,-426r-314,0r-87,426r-150,0xm370,-550r314,0r75,-363r-315,0"},"$":{"d":"1014,-575v110,303,-103,604,-398,604r0,182r-106,0r0,-180v-271,-26,-409,-168,-437,-438r181,-34v21,185,107,296,256,320r0,-573v-134,-28,-300,-100,-360,-219v-29,-58,-46,-121,-46,-193v0,-236,153,-392,406,-409r0,-86r106,0r0,86v228,19,360,153,391,361r-186,28v-20,-136,-81,-210,-205,-237r0,519v171,42,227,60,317,143v37,34,63,77,81,126xm510,-1365v-127,16,-226,111,-226,245v0,152,87,211,226,253r0,-498xm616,-121v136,-15,247,-132,242,-284v-6,-172,-82,-207,-242,-264r0,548"},"%":{"d":"429,-716v-202,0,-310,-163,-310,-398v0,-201,106,-381,308,-377v203,4,319,159,319,388v0,223,-120,387,-317,387xm589,-1110v0,-155,-39,-257,-157,-257v-122,0,-156,106,-156,271v0,154,39,256,156,256v123,0,157,-105,157,-270xm433,54r802,-1545r146,0r-799,1545r-149,0xm1377,54v-201,0,-310,-164,-310,-398v0,-202,105,-382,309,-377v203,4,319,159,319,388v0,223,-120,387,-318,387xm1538,-340v0,-155,-39,-257,-157,-257v-123,0,-157,105,-157,271v0,153,40,256,156,256v124,0,158,-105,158,-270","w":1821},"&":{"d":"636,-1491v187,0,341,137,341,313v0,139,-92,258,-277,357r263,335v30,-59,53,-127,70,-204r187,40v-32,128,-75,233,-130,316v67,89,144,164,229,225r-121,143v-73,-47,-148,-116,-225,-207v-104,115,-228,191,-421,198v-253,9,-462,-189,-464,-429v0,-91,30,-173,88,-246v58,-73,145,-137,261,-192v-99,-121,-158,-171,-165,-322v-8,-181,171,-327,364,-327xm627,-1343v-118,0,-210,117,-153,233v29,60,90,121,133,173v119,-76,177,-101,186,-236v6,-96,-72,-170,-166,-170xm860,-315r-330,-409v-97,58,-163,112,-197,162v-78,116,-63,218,20,332v80,111,241,124,369,46v57,-35,103,-78,138,-131","w":1366},"'":{"d":"136,-947r-46,-274r0,-245r205,0r0,245r-48,274r-111,0","w":391},"(":{"d":"124,-531v5,-419,153,-682,355,-960r129,0v-146,253,-198,327,-256,585v-118,522,-5,898,256,1337r-129,0v-179,-228,-359,-574,-355,-962","w":682},")":{"d":"608,-531v5,386,-178,735,-355,962r-129,0v199,-320,299,-640,299,-961v-1,-246,-56,-478,-138,-661v-26,-60,-80,-160,-161,-300r129,0v203,280,349,539,355,960","w":682},"*":{"d":"64,-1197r46,-142v106,37,183,70,231,97v-13,-121,-19,-204,-20,-249r145,0v-2,66,-10,149,-23,248v69,-35,147,-67,236,-96r46,142v-85,28,-168,47,-249,56v41,35,98,98,172,189r-120,85v-39,-53,-84,-124,-137,-215v-49,94,-93,166,-130,215r-118,-85v77,-95,133,-158,166,-189v-86,-17,-168,-35,-245,-56","w":797},"+":{"d":"513,-237r0,-402r-399,0r0,-168r399,0r0,-399r170,0r0,399r399,0r0,168r-399,0r0,402r-170,0","w":1196},",":{"d":"182,0r0,-205r205,0v-3,139,14,301,-40,387v-28,45,-69,83,-127,108r-50,-77v80,-37,110,-96,114,-213r-102,0","w":569},"-":{"d":"65,-440r0,-181r553,0r0,181r-553,0","w":682},"\u00ad":{"d":"65,-440r0,-181r553,0r0,181r-553,0","w":682},".":{"d":"186,0r0,-205r205,0r0,205r-205,0","w":569},"\/":{"d":"0,25r425,-1516r144,0r-424,1516r-145,0","w":569},"0":{"d":"85,-723v0,-316,57,-526,213,-663v112,-98,331,-113,472,-38v126,68,196,193,238,354v49,187,40,597,-20,764v-69,190,-188,331,-425,331v-141,0,-252,-51,-333,-152v-97,-122,-145,-321,-145,-596xm270,-723v0,241,29,400,84,481v107,158,311,158,418,-1v55,-81,84,-240,84,-480v0,-241,-30,-400,-84,-481v-99,-150,-309,-160,-409,-14v-61,90,-93,254,-93,495"},"1":{"d":"223,-1104v172,-78,346,-219,424,-368r116,0r0,1472r-180,0r0,-1147v-78,77,-249,176,-360,217r0,-174","k":{"1":152}},"2":{"d":"572,-1472v324,-8,547,272,421,580v-24,57,-66,114,-119,179v-67,82,-406,361,-486,443v-31,32,-56,64,-76,97r719,0r0,173r-969,0v3,-145,63,-224,140,-320v53,-65,132,-138,235,-222v159,-131,267,-234,323,-310v56,-76,84,-149,84,-217v1,-146,-122,-254,-276,-254v-175,0,-289,116,-287,294r-185,-19v22,-268,191,-417,476,-424"},"3":{"d":"1046,-433v0,259,-225,459,-494,459v-257,0,-447,-177,-466,-413r180,-24v34,174,112,282,287,288v166,6,302,-138,302,-306v0,-163,-124,-288,-287,-285v-34,0,-76,7,-127,20r20,-158v171,13,328,-72,328,-243v0,-132,-104,-232,-240,-229v-159,4,-244,108,-265,264r-180,-32v37,-224,194,-380,441,-380v241,0,429,147,429,381v0,148,-86,246,-202,297v165,36,274,165,274,361"},"4":{"d":"662,0r0,-351r-636,0r0,-165r669,-950r147,0r0,950r198,0r0,165r-198,0r0,351r-180,0xm662,-516r0,-661r-459,661r459,0"},"5":{"d":"1057,-497v0,291,-212,522,-501,522v-265,0,-450,-167,-471,-409r189,-16v22,163,118,275,282,277v182,2,310,-160,310,-358v0,-197,-123,-332,-313,-332v-122,0,-218,64,-267,142r-169,-22r142,-753r729,0r0,172r-585,0r-79,394v88,-61,180,-92,277,-92v257,0,456,209,456,475"},"6":{"d":"1045,-476v-9,286,-171,501,-459,501v-150,0,-272,-55,-367,-165v-95,-110,-142,-293,-142,-546v0,-283,52,-489,157,-618v91,-112,214,-168,369,-168v237,-1,391,148,416,365r-179,14v-27,-145,-109,-231,-248,-231v-155,0,-232,106,-285,229v-34,79,-50,192,-51,339v73,-114,192,-192,356,-195v246,-4,441,214,433,475xm576,-792v-167,-1,-296,140,-292,317v5,191,113,352,299,352v166,0,278,-154,278,-342v0,-187,-112,-326,-285,-327"},"7":{"d":"302,0v24,-494,261,-988,513,-1274r-718,0r0,-173r949,0r0,140v-192,204,-400,583,-490,904v-34,123,-59,257,-69,403r-185,0"},"8":{"d":"83,-424v1,-201,111,-329,279,-371v-133,-48,-218,-137,-220,-299v-3,-221,184,-378,421,-378v238,0,428,161,426,383v-2,156,-88,247,-216,294v164,52,274,176,276,376v3,257,-211,444,-483,444v-274,0,-484,-188,-483,-449xm565,-1324v-130,0,-239,100,-239,224v0,138,102,236,241,236v132,0,237,-99,237,-226v0,-130,-107,-234,-239,-234xm562,-717v-165,0,-297,129,-294,294v3,175,123,297,300,300v168,3,297,-126,297,-294v0,-170,-133,-300,-303,-300"},"9":{"d":"85,-977v0,-282,192,-498,461,-495v215,2,369,130,442,296v81,183,73,671,0,860v-76,196,-220,339,-464,341v-237,2,-387,-145,-412,-364r173,-16v25,144,93,232,243,232v198,0,271,-135,315,-311v21,-85,30,-163,26,-256v-64,104,-192,192,-350,193v-251,1,-434,-212,-434,-480xm563,-656v176,-1,286,-139,286,-330v0,-187,-114,-337,-281,-337v-170,0,-298,164,-298,352v0,177,125,316,293,315"},":":{"d":"185,-857r0,-205r205,0r0,205r-205,0xm185,0r0,-205r205,0r0,205r-205,0","w":569},";":{"d":"182,-857r0,-205r205,0r0,205r-205,0xm182,0r0,-205r205,0v-3,139,14,301,-40,387v-28,45,-69,83,-127,108r-50,-77v80,-37,110,-96,114,-213r-102,0","w":569},"\u037e":{"d":"182,-857r0,-205r205,0r0,205r-205,0xm182,0r0,-205r205,0v-3,139,14,301,-40,387v-28,45,-69,83,-127,108r-50,-77v80,-37,110,-96,114,-213r-102,0","w":569},"<":{"d":"112,-641r0,-168r971,-410r0,179r-770,316r770,319r0,179","w":1196},"=":{"d":"1082,-862r-968,0r0,-168r968,0r0,168xm1082,-417r-968,0r0,-168r968,0r0,168","w":1196},">":{"d":"1083,-641r-971,415r0,-179r769,-319r-769,-316r0,-179r971,410r0,168","w":1196},"?":{"d":"565,-1491v325,-10,578,280,426,577v-28,55,-89,119,-176,197v-128,116,-165,136,-170,356r-173,0v-10,-262,79,-343,230,-479v97,-87,142,-112,149,-239v7,-141,-135,-269,-283,-264v-178,6,-267,119,-293,297r-185,-22v29,-261,194,-414,475,-423xm461,0r0,-205r205,0r0,205r-205,0"},"@":{"d":"1354,4v-125,0,-185,-42,-193,-167v-72,83,-174,166,-307,166v-229,0,-360,-207,-362,-449v-2,-224,140,-467,284,-558v82,-51,159,-80,235,-80v142,0,240,80,302,184r34,-155r179,0r-144,671v-20,93,-30,145,-30,155v-1,36,33,66,70,66v35,0,81,-21,139,-61v136,-92,247,-281,247,-492v0,-394,-312,-631,-715,-631v-506,0,-828,360,-834,862v-6,514,350,762,861,768v327,4,576,-125,704,-302r181,0v-82,160,-274,316,-470,387v-222,81,-582,80,-821,6v-361,-112,-603,-395,-603,-843v0,-390,200,-721,447,-880v257,-165,700,-193,990,-43v222,115,408,360,408,679v0,193,-68,365,-204,515v-121,135,-254,202,-398,202xm1256,-649v9,-209,-173,-354,-352,-253v-129,73,-219,270,-227,468v-8,203,152,357,332,256v139,-78,238,-257,247,-471","w":2079},"A":{"d":"-3,0r563,-1466r209,0r600,1466r-221,0r-171,-444r-613,0r-161,444r-206,0xm420,-602r497,0r-153,-406v-47,-123,-81,-225,-104,-304v-51,254,-160,480,-240,710","w":1366,"k":{"\u2019":152,"y":37,"w":37,"v":37,"Y":152,"W":76,"V":152,"T":152," ":113}},"B":{"d":"981,-780v160,45,276,166,276,355v0,305,-215,425,-548,425r-559,0r0,-1466r550,0v217,0,346,53,428,182v39,61,58,126,58,193v0,150,-88,256,-205,311xm344,-850v271,-18,651,83,651,-218v0,-101,-53,-180,-135,-204v-106,-31,-360,-18,-516,-21r0,443xm344,-173r365,0v126,1,174,-10,244,-47v97,-50,140,-242,61,-348v-68,-91,-160,-109,-331,-109r-339,0r0,504","w":1366},"C":{"d":"775,-141v242,0,385,-152,429,-373r194,49v-71,291,-272,490,-607,490v-328,0,-510,-141,-611,-376v-52,-122,-78,-253,-78,-393v1,-452,256,-747,692,-747v310,0,508,174,579,427r-191,45v-61,-191,-167,-303,-392,-306v-338,-4,-488,250,-488,580v0,246,69,444,224,535v77,46,160,69,249,69","w":1479},"D":{"d":"158,0r0,-1466v243,5,570,-23,766,21v302,68,444,334,446,704v2,301,-99,524,-272,643v-99,68,-240,98,-411,98r-529,0xm665,-173v389,13,496,-206,505,-571v6,-271,-91,-448,-259,-519v-112,-47,-385,-27,-559,-30r0,1120r313,0","w":1479},"E":{"d":"162,0r0,-1466r1060,0r0,173r-866,0r0,449r811,0r0,172r-811,0r0,499r900,0r0,173r-1094,0","w":1366},"F":{"d":"168,0r0,-1466r989,0r0,173r-795,0r0,454r688,0r0,173r-688,0r0,666r-194,0","w":1251,"k":{"A":113,".":227,",":227}},"G":{"d":"847,-150v159,4,347,-80,428,-152r0,-273r-431,0r0,-172r621,-1r0,544v-164,130,-349,229,-607,229v-458,0,-749,-290,-749,-751v0,-455,265,-771,734,-765v335,5,536,151,600,435r-175,48v-52,-206,-181,-317,-424,-317v-366,0,-528,239,-535,587v-7,369,195,578,538,588","w":1593},"H":{"d":"164,0r0,-1466r194,0r0,602r762,0r0,-602r194,0r0,1466r-194,0r0,-691r-762,0r0,691r-194,0","w":1479},"I":{"d":"191,0r0,-1466r194,0r0,1466r-194,0","w":569},"J":{"d":"865,-467v8,324,-119,492,-412,492v-267,0,-402,-161,-394,-441r175,-24v8,191,54,292,218,292v172,0,219,-104,219,-308r0,-1010r194,0r0,999","w":1024},"K":{"d":"150,0r0,-1466r194,0r0,727r728,-727r263,0r-615,594r642,872r-256,0r-522,-742r-240,234r0,508r-194,0","w":1366},"L":{"d":"150,0r0,-1466r194,0r0,1293r722,0r0,173r-916,0","k":{"\u2019":113,"y":76,"Y":152,"W":152,"V":152,"T":152," ":76}},"M":{"d":"152,0r0,-1466r292,0r347,1038r70,217r78,-235r351,-1020r261,0r0,1466r-187,0r0,-1227r-426,1227r-175,0r-424,-1248r0,1248r-187,0","w":1706},"N":{"d":"156,0r0,-1466r199,0r770,1151r0,-1151r186,0r0,1466r-199,0r-770,-1152r0,1152r-186,0","w":1479},"O":{"d":"800,25v-432,0,-691,-312,-701,-739v-10,-457,272,-778,702,-778v440,0,700,311,700,761v0,448,-266,756,-701,756xm1301,-732v-5,-346,-170,-593,-499,-593v-137,0,-255,47,-354,141v-99,94,-149,252,-149,473v0,327,198,570,500,570v314,0,507,-246,502,-591","w":1593},"P":{"d":"158,0r0,-1466r553,0v282,-4,433,45,521,224v85,172,46,390,-74,516v-81,85,-223,130,-430,130r-376,0r0,596r-194,0xm731,-769v224,1,341,-72,346,-267v3,-123,-70,-223,-169,-244v-130,-28,-390,-9,-556,-13r0,524r379,0","w":1366,"k":{"A":152,".":264,",":264," ":37}},"Q":{"d":"1490,-734v0,258,-82,444,-221,577v90,62,173,107,249,136r-57,135v-105,-38,-210,-98,-315,-180v-109,61,-229,91,-360,91v-436,0,-698,-313,-698,-758v0,-446,259,-759,702,-759v439,0,700,310,700,758xm288,-733v0,350,186,588,503,592v69,0,135,-13,196,-39v-61,-39,-125,-67,-192,-84r47,-141v112,31,204,78,277,140v114,-104,171,-260,171,-469v0,-345,-171,-591,-499,-591v-317,0,-503,235,-503,592","w":1593},"R":{"d":"1333,-1066v0,241,-167,370,-413,399v140,66,197,141,278,268r255,399r-244,0r-194,-305v-89,-134,-139,-229,-239,-300v-59,-41,-91,-47,-196,-46r-225,0r0,651r-194,0r0,-1466r650,0v249,2,369,33,461,179v42,66,61,140,61,221xm1133,-1066v0,-161,-124,-238,-314,-238r-464,0r0,485r417,0v218,5,361,-60,361,-247","w":1479,"k":{"Y":37,"W":37,"V":37,"T":37}},"S":{"d":"1259,-414v0,283,-242,438,-542,439v-263,1,-441,-76,-545,-233v-51,-78,-77,-165,-80,-263r183,-16v20,231,188,338,433,338v193,0,364,-71,364,-249v0,-117,-71,-166,-172,-207v-76,-31,-474,-121,-544,-163v-117,-70,-208,-159,-208,-319v0,-269,232,-404,516,-404v315,0,533,145,551,438r-186,14v-22,-191,-138,-282,-357,-281v-117,0,-201,23,-256,64v-94,71,-104,202,-24,286v61,64,535,156,617,198v144,75,250,170,250,358","w":1366},"T":{"d":"531,0r0,-1293r-483,0r0,-173r1162,0r0,173r-485,0r0,1293r-194,0","w":1251,"k":{"y":113,"w":113,"u":76,"s":227,"r":76,"o":227,"i":76,"e":227,"c":227,"a":227,"O":37,"A":152,";":227,":":227,".":227,"-":113,",":227," ":37}},"U":{"d":"724,-150v317,0,396,-126,396,-470r0,-846r194,0r0,847v-3,294,-51,449,-230,563v-87,54,-202,81,-343,81v-417,0,-580,-207,-580,-644r0,-847r194,0r0,846v2,232,24,341,157,421v57,34,129,49,212,49","w":1479},"V":{"d":"577,0r-568,-1466r210,0r381,1065v31,85,56,165,77,240v23,-80,49,-160,79,-240r396,-1065r198,0r-574,1466r-199,0","w":1366,"k":{"y":76,"u":76,"r":76,"o":113,"i":37,"e":113,"a":152,"A":152,";":76,":":76,".":188,"-":113,",":188}},"W":{"d":"414,0r-389,-1466r199,0r223,961v24,101,45,201,62,300v37,-157,59,-247,66,-271r279,-990r234,0r210,742v53,184,91,357,114,519v19,-93,44,-199,73,-319r230,-942r195,0r-402,1466r-187,0r-355,-1289v-15,67,-30,125,-43,172r-311,1117r-198,0","w":1933,"k":{"y":18,"u":37,"r":37,"o":37,"e":37,"a":76,"A":76,";":37,":":37,".":113,"-":37,",":113}},"X":{"d":"9,0r567,-764r-500,-702r231,0r266,376v55,78,95,138,118,180v122,-189,278,-374,411,-556r211,0r-515,691r555,775r-240,0r-369,-523v-21,-30,-42,-63,-64,-98v-143,229,-288,406,-438,621r-233,0","w":1366},"Y":{"d":"571,0r0,-621r-565,-845r236,0r289,442v53,83,103,165,149,248v44,-77,97,-163,160,-259r284,-431r226,0r-585,845r0,621r-194,0","w":1366,"k":{"v":113,"u":113,"q":188,"p":152,"o":188,"i":76,"e":188,"a":152,"A":152,";":133,":":113,".":264,"-":188,",":264," ":37}},"Z":{"d":"41,0r0,-180r751,-939v53,-67,104,-125,152,-174r-818,0r0,-173r1050,0r0,173r-823,1017r-89,103r936,0r0,173r-1159,0","w":1251},"[":{"d":"139,407r0,-1873r397,0r0,149r-217,0r0,1575r217,0r0,149r-397,0","w":569},"\\":{"d":"425,25r-425,-1516r145,0r424,1516r-144,0","w":569},"]":{"d":"436,407r-397,0r0,-149r217,0r0,-1575r-217,0r0,-149r397,0r0,1873","w":569},"^":{"d":"239,-690r-185,0r353,-801r145,0r355,801r-181,0r-247,-597","w":961},"_":{"d":"-31,407r0,-130r1193,0r0,130r-1193,0"},"`":{"d":"465,-1194r-145,0r-231,-280r241,0","w":682},"a":{"d":"995,-445v6,270,-11,308,57,445r-188,0v-19,-37,-31,-81,-36,-131v-115,96,-212,150,-391,155v-213,5,-363,-111,-363,-304v0,-172,117,-269,258,-305v119,-31,406,-52,481,-89v18,-197,-77,-263,-255,-263v-179,0,-237,55,-277,202r-176,-24v41,-230,210,-327,479,-327v221,0,367,58,402,235v17,88,7,287,9,406xm291,-370v-76,130,31,253,189,253v143,0,256,-71,304,-170v24,-50,31,-154,29,-246v-75,43,-348,64,-451,104v-31,12,-56,33,-71,59"},"b":{"d":"1055,-547v9,323,-178,571,-459,571v-125,0,-224,-52,-295,-157r0,133r-167,0r0,-1466r180,0r0,523v76,-95,173,-143,291,-143v304,0,441,229,450,539xm589,-938v-184,0,-290,178,-290,399v0,127,17,219,52,276v57,93,133,139,230,139v187,0,290,-179,290,-408v0,-139,-28,-241,-83,-307v-55,-66,-121,-99,-199,-99"},"c":{"d":"561,-124v161,0,247,-105,267,-265r177,23v-32,227,-196,390,-442,390v-307,0,-483,-221,-483,-551v0,-335,165,-555,484,-559v238,-3,386,130,424,336r-175,27v-28,-126,-104,-215,-242,-215v-210,0,-306,160,-306,406v0,248,88,408,296,408","w":1024},"d":{"d":"519,-1086v134,-2,235,65,293,146r0,-526r179,0r0,1466r-167,0r0,-134v-100,176,-354,204,-530,88v-137,-90,-224,-262,-224,-484v1,-313,147,-551,449,-556xm536,-937v-194,0,-281,169,-281,407v0,136,29,238,86,305v57,67,125,101,203,101v186,0,283,-165,283,-391v0,-145,-28,-252,-84,-320v-56,-68,-125,-102,-207,-102"},"e":{"d":"582,-124v156,0,233,-86,280,-218r186,23v-55,208,-211,343,-467,343v-319,1,-506,-215,-506,-546v0,-333,186,-564,496,-564v316,0,506,247,482,601r-792,0v7,209,124,361,321,361xm864,-633v-10,-189,-122,-302,-291,-305v-172,-3,-295,133,-302,305r593,0"},"f":{"d":"507,-1326v-117,2,-149,43,-150,166r0,98r207,0r0,140r-207,0r0,922r-179,0r0,-922r-159,0r0,-140r159,0v0,-90,-3,-219,19,-272v40,-99,127,-159,275,-157v51,0,107,6,168,18r-27,157v-37,-7,-73,-10,-106,-10","w":569,"k":{"\u2019":-37,"f":37}},"g":{"d":"66,-537v4,-308,152,-549,460,-549v125,0,229,51,310,152r0,-128r166,0r0,918v-2,301,-39,414,-210,515v-152,90,-446,77,-577,-25v-76,-59,-116,-143,-113,-258r175,26v16,124,109,166,244,168v163,2,250,-67,285,-190v9,-37,14,-114,13,-231v-79,93,-177,139,-294,139v-291,0,-463,-252,-459,-537xm539,-937v-186,0,-288,166,-288,387v0,240,92,401,291,401v195,0,292,-161,292,-395v0,-226,-106,-393,-295,-393"},"h":{"d":"596,-931v-191,0,-281,127,-281,350r0,581r-180,0r0,-1466r180,0r0,526v84,-97,190,-146,318,-146v253,0,367,130,367,413r0,673r-180,0r0,-673v1,-168,-69,-258,-224,-258"},"i":{"d":"136,-1259r0,-207r180,0r0,207r-180,0xm136,0r0,-1062r180,0r0,1062r-180,0","w":455},"j":{"d":"134,-1257r0,-209r180,0r0,209r-180,0xm25,273v109,0,109,-67,109,-219r0,-1116r180,0r0,1120v0,131,-20,220,-51,273v-60,101,-221,120,-357,81r34,-153v36,9,64,14,85,14","w":455},"k":{"d":"136,0r0,-1466r180,0r0,836r426,-432r233,0r-406,394r447,668r-222,0r-351,-543r-127,122r0,421r-180,0","w":1024},"l":{"d":"131,0r0,-1466r180,0r0,1466r-180,0","w":455},"m":{"d":"766,-690v-1,-150,-45,-240,-188,-240v-198,0,-263,145,-263,379r0,551r-180,0r0,-1062r161,0r0,149v61,-96,172,-173,322,-173v158,-1,259,70,300,186v84,-124,193,-186,328,-186v220,0,328,125,328,357r0,729r-179,0r0,-669v-2,-131,-9,-184,-81,-232v-30,-20,-67,-29,-108,-29v-169,0,-260,118,-260,313r0,617r-180,0r0,-690","w":1706},"n":{"d":"597,-930v-188,0,-282,115,-282,350r0,580r-180,0r0,-1062r162,0r0,151v100,-163,316,-220,515,-141v102,41,151,112,176,224v7,33,10,92,10,175r0,653r-180,0r0,-646v7,-189,-58,-284,-221,-284"},"o":{"d":"566,24v-313,-1,-498,-220,-498,-555v0,-337,186,-552,498,-555v302,-3,497,222,497,540v0,266,-77,412,-241,505v-78,44,-163,65,-256,65xm566,-937v-205,0,-313,167,-313,406v0,240,107,407,313,407v206,0,312,-170,312,-413v0,-232,-111,-400,-312,-400"},"p":{"d":"594,24v-126,4,-222,-62,-279,-134r0,517r-180,0r0,-1469r164,0r0,138v72,-98,152,-162,308,-162v301,0,448,240,450,547v2,317,-166,554,-463,563xm590,-945v-184,0,-292,191,-292,420v0,137,28,238,83,303v55,65,122,98,201,98v194,0,291,-177,291,-416v0,-135,-27,-237,-83,-304v-56,-67,-123,-101,-200,-101"},"q":{"d":"72,-541v6,-309,152,-545,448,-545v131,0,235,55,310,166r0,-142r162,0r0,1469r-180,0r0,-520v-50,73,-159,138,-278,137v-276,-3,-468,-252,-462,-565xm537,-944v-190,0,-280,174,-280,410v0,137,29,240,86,308v57,68,126,102,206,102v183,0,281,-169,281,-394v0,-141,-30,-248,-88,-319v-58,-71,-126,-107,-205,-107"},"r":{"d":"516,-900v-165,0,-203,175,-203,344r0,556r-180,0r0,-1062r162,0r0,161v69,-116,99,-185,230,-185v61,0,122,19,185,58r-62,167v-44,-26,-88,-39,-132,-39","w":682,"k":{"\u2019":-76,".":113,",":113}},"s":{"d":"945,-312v0,220,-192,335,-428,336v-274,1,-411,-113,-454,-341r178,-28v20,142,111,221,275,221v139,0,244,-58,244,-169v0,-41,-17,-73,-53,-96v-66,-42,-410,-111,-459,-147v-90,-41,-155,-125,-155,-244v0,-211,169,-306,391,-306v237,0,395,83,421,298r-176,24v-17,-113,-97,-174,-232,-174v-133,0,-230,38,-230,137v0,59,40,90,91,111v18,7,71,22,159,46v127,34,217,62,267,84v94,41,161,118,161,248","w":1024},"t":{"d":"347,-301v-2,111,11,147,102,147v20,0,46,-2,79,-7r26,159v-154,37,-322,13,-364,-96v-13,-34,-22,-105,-22,-213r0,-611r-132,0r0,-140r132,0r0,-263r179,-108r0,371r181,0r0,140r-181,0r0,621","w":569},"u":{"d":"831,0r0,-156v-109,167,-313,230,-513,144v-150,-64,-187,-169,-187,-392r0,-658r180,0r0,589v1,177,-1,233,83,301v74,60,204,52,288,0v102,-63,130,-148,130,-321r0,-569r180,0r0,1062r-161,0"},"v":{"d":"430,0r-404,-1062r190,0r228,636v25,69,47,140,68,214v16,-56,38,-123,67,-202r236,-648r185,0r-402,1062r-168,0","w":1024,"k":{".":152,",":152}},"w":{"d":"331,0r-325,-1062r186,0r232,841v3,-11,19,-85,55,-219r169,-622r185,0r212,819r243,-819r175,0r-332,1062r-187,0r-169,-636r-41,-181r-215,817r-188,0","w":1479,"k":{".":113,",":113}},"x":{"d":"15,0r388,-552r-359,-510r225,0r163,249v31,47,55,87,74,119r260,-368r215,0r-367,500r395,562r-221,0r-276,-419r-279,419r-218,0","w":1024},"y":{"d":"127,409r-20,-169v109,34,217,11,258,-60v11,-18,49,-117,71,-178r-403,-1064r194,0r221,615v29,78,54,160,77,246v82,-303,202,-574,301,-861r180,0r-404,1080v-43,117,-79,196,-101,241v-64,132,-198,211,-374,150","w":1024,"k":{".":152,",":152}},"z":{"d":"40,0r0,-146r676,-776v-77,4,-144,6,-203,6r-433,0r0,-146r868,0r0,119r-575,674r-111,123v236,-17,472,-6,718,-9r0,155r-940,0","w":1024},"{":{"d":"224,-530v166,77,208,186,209,450v0,130,1,207,4,232v10,111,69,124,199,122r0,157v-218,13,-325,-50,-358,-221v-16,-84,-10,-430,-31,-508v-23,-88,-85,-149,-190,-151r0,-163v105,-2,168,-61,190,-150v33,-136,0,-486,57,-591v60,-109,150,-147,332,-138r0,157v-166,-1,-203,27,-203,205v0,175,-4,285,-11,331v-27,151,-76,207,-198,268","w":684},"|":{"d":"188,431r0,-1922r157,0r0,1922r-157,0","w":532},"}":{"d":"459,-530v-169,-88,-209,-178,-209,-451v0,-130,-3,-208,-5,-233v-10,-110,-70,-122,-198,-120r0,-157v218,-14,326,50,359,221v16,84,9,431,30,508v24,88,85,148,190,150r0,163v-105,2,-168,63,-190,151v-33,135,2,485,-56,590v-60,109,-151,148,-333,139r0,-157v166,1,203,-27,203,-206v0,-167,3,-272,9,-317v22,-148,81,-230,200,-281","w":684},"~":{"d":"348,-693v-130,0,-168,53,-261,136r0,-205v94,-108,237,-140,404,-102v83,19,244,116,361,116v105,0,200,-73,258,-137r0,212v-76,70,-147,108,-277,114v-164,8,-329,-134,-485,-134","w":1196},"\u2122":{"d":"489,-651r0,-694r-264,0r0,-121r666,0r0,121r-266,0r0,694r-136,0xm982,-651r0,-815r200,0r206,651r199,-651r196,0r0,815r-124,0r0,-684r-210,684r-123,0r-219,-694r0,694r-125,0","w":2048},"\u2026":{"d":"239,0r0,-205r205,0r0,205r-205,0xm922,0r0,-205r205,0r0,205r-205,0xm1604,0r0,-205r206,0r0,205r-206,0","w":2048},"\u2013":{"d":"-4,-458r0,-145r1139,0r0,145r-1139,0"},"\u2014":{"d":"0,-458r0,-145r2048,0r0,145r-2048,0","w":2048},"\u201c":{"d":"276,-1220r0,209r-193,0v1,-121,-6,-293,32,-359v30,-52,72,-94,133,-121r44,70v-78,34,-106,89,-110,201r94,0xm586,-1220r0,209r-193,0v1,-121,-6,-293,32,-359v30,-52,72,-94,133,-121r44,70v-78,34,-106,89,-110,201r94,0","w":682},"\u201d":{"d":"87,-1272r0,-209r193,0v-1,119,6,293,-31,358v-30,53,-73,95,-134,122r-44,-71v76,-32,106,-93,110,-200r-94,0xm397,-1272r0,-209r193,0v-1,119,6,293,-31,358v-30,53,-73,95,-134,122r-44,-71v76,-32,106,-93,110,-200r-94,0","w":682},"\u2018":{"d":"321,-1220r0,209r-193,0v1,-121,-6,-293,32,-359v30,-52,72,-94,133,-121r44,70v-78,34,-106,89,-110,201r94,0","w":455,"k":{"\u2018":37}},"\u2019":{"d":"124,-1272r0,-209r193,0v-1,119,6,293,-31,358v-30,53,-73,95,-134,122r-44,-71v76,-32,106,-93,110,-200r-94,0","w":455,"k":{"\u2019":37,"s":37," ":76}},"\u00d7":{"d":"161,-409r315,-315r-314,-314r122,-122r314,314r313,-313r120,121r-312,313r314,314r-122,122r-314,-314r-315,315","w":1196},"\u0393":{"d":"164,-1466r916,0r0,173r-722,0r0,1293r-194,0r0,-1466","w":1128,"k":{"\u03ca":-88,"\u03b9":88,"\u039b":188,"\u0394":188,"\u0391":188,"\u0390":-164,".":225,",":225}},"\u0398":{"d":"797,25v-434,-3,-692,-319,-701,-739v-10,-458,273,-775,702,-778v419,-2,700,327,700,761v0,432,-285,760,-701,756xm1298,-732v0,-343,-185,-593,-499,-593v-143,0,-263,49,-359,147v-96,98,-144,254,-144,467v0,318,190,572,500,570v316,-2,502,-251,502,-591xm507,-647r0,-172r580,0r0,172r-580,0","w":1593,"k":{"\u03ab":66,"\u03a5":66,"\u039b":37,"\u0394":37,"\u0391":37}},"\u03a6":{"d":"720,-161v-358,-6,-636,-230,-635,-579v1,-238,122,-413,287,-503v92,-50,207,-79,348,-86r0,-181r194,0r0,181v370,15,629,228,635,580v6,364,-278,579,-635,588r0,214r-194,0r0,-214xm720,-1161v-267,7,-433,149,-433,420v0,263,185,411,433,415r0,-835xm914,-326v263,-6,438,-153,437,-418v-1,-255,-165,-423,-437,-417r0,835","w":1634,"k":{"\u03ab":66,"\u03a5":66,"\u0391":59}},"\u03b1":{"d":"519,-1086v190,0,265,81,351,204v5,-23,22,-83,53,-180r184,0v-47,147,-90,324,-129,531v47,257,90,434,129,531r-179,0v-29,-67,-50,-131,-65,-194v-55,145,-171,218,-347,218v-287,0,-444,-245,-444,-557v0,-321,154,-553,447,-553xm829,-541v0,-227,-86,-396,-280,-396v-197,0,-279,177,-279,404v0,221,75,409,269,409v193,0,290,-187,290,-417","w":1184},"\u03b4":{"d":"72,-516v-6,-311,179,-516,444,-532v-62,-43,-176,-139,-342,-288r0,-130r801,0r0,146r-560,0v67,68,171,151,313,249v127,88,215,170,265,245v50,75,75,177,75,306v0,327,-194,538,-503,544v-316,6,-487,-244,-493,-540xm570,-909v-203,-5,-314,191,-314,395v0,208,123,394,318,390v192,-4,309,-157,309,-391v0,-225,-114,-390,-313,-394","w":1140,"k":{"\u03c0":29,"\u03c7":55,"\u03bb":39,"\u03c4":29}},"\u03b5":{"d":"127,-778v0,-179,141,-308,354,-308v137,0,253,48,348,144r-129,104v-82,-62,-159,-93,-230,-93v-103,0,-169,64,-169,148v0,125,133,176,286,162r0,151v-177,-14,-297,41,-302,178v-4,95,92,168,189,168v94,0,182,-44,264,-131r129,109v-107,113,-239,170,-398,170v-222,0,-371,-126,-371,-316v0,-121,59,-206,176,-257v-98,-55,-147,-132,-147,-229","w":913},"\u03c3":{"d":"68,-531v0,-402,280,-627,666,-531r485,0r0,146r-289,0v89,83,133,211,133,386v0,347,-193,554,-499,554v-309,0,-496,-216,-496,-555xm880,-531v-2,-224,-96,-411,-319,-406v-201,5,-308,171,-308,407v0,239,102,406,311,406v212,0,318,-174,316,-407","w":1264},"\u03c4":{"d":"506,-916r0,916r-180,0r0,-916r-280,0r0,-146r716,0r0,146r-256,0","w":809,"k":{"\u03ce":29,"\u03c9":29,"\u03c2":29,"\u03bf":29,"\u03b6":29,"\u03ac":29,"\u03c6":29,"\u03c3":29,"\u03b4":29,"\u03b1":29}},"\u03c6":{"d":"582,-792v-8,-197,47,-294,229,-294v212,0,307,88,384,241v78,156,84,341,13,509v-73,173,-227,320,-448,361r0,382r-178,0r0,-382v-124,0,-240,-54,-348,-163v-108,-109,-162,-248,-162,-419v0,-279,181,-528,427,-526r-35,156v-138,46,-207,167,-207,362v0,221,125,397,325,433r0,-660xm862,-937v-99,0,-102,65,-102,197r0,600v181,-35,308,-219,308,-454v0,-119,-22,-206,-66,-261v-44,-55,-91,-82,-140,-82","w":1328,"k":{"\u03c0":29,"\u03c7":55,"\u03bb":39,"\u03c4":29}},"\u2032":{"d":"128,-947r12,-274r52,-245r206,0r-53,245r-105,274r-112,0","w":384},"\u2033":{"d":"128,-947r12,-274r52,-245r206,0r-53,245r-105,274r-112,0xm411,-947r12,-274r52,-245r206,0r-53,245r-105,274r-112,0","w":725},"\u0387":{"d":"185,-857r0,-205r205,0r0,205r-205,0","w":569},"\u0384":{"d":"222,-1194r133,-280r236,0r-220,280r-149,0","w":682},"\u0385":{"d":"347,-1507r186,0r-200,277r-117,0xm532,-1422r173,0r0,192r-173,0r0,-192xm-22,-1422r173,0r0,192r-173,0r0,-192","w":682},"\u0386":{"d":"-1,0r563,-1466r209,0r600,1466r-221,0r-171,-444r-613,0r-161,444r-206,0xm422,-602r497,0r-153,-406v-49,-129,-83,-231,-104,-304v-51,254,-160,480,-240,710xm54,-1186r133,-280r236,0r-220,280r-149,0","w":1367,"k":{"\u03c7":37,"\u03bd":37,"\u03b3":37,"\u03ab":152,"\u03a5":152,"\u03a4":152,"\u039f":43,"\u03a6":59,"\u0398":43}},"\u0388":{"d":"401,0r0,-1466r1060,0r0,173r-866,0r0,449r811,0r0,172r-811,0r0,499r900,0r0,173r-1094,0xm-89,-1186r133,-280r236,0r-220,280r-149,0","w":1606},"\u0389":{"d":"360,0r0,-1466r194,0r0,602r762,0r0,-602r194,0r0,1466r-194,0r0,-691r-762,0r0,691r-194,0xm-88,-1186r133,-280r236,0r-220,280r-149,0","w":1716},"\u038a":{"d":"360,0r0,-1466r194,0r0,1466r-194,0xm-88,-1186r133,-280r236,0r-220,280r-149,0","w":786},"\u038c":{"d":"789,25v-434,-3,-692,-319,-701,-739v-10,-458,273,-775,702,-778v419,-2,700,327,700,761v0,432,-285,760,-701,756xm1290,-732v0,-343,-185,-593,-499,-593v-143,0,-263,49,-359,147v-96,98,-144,254,-144,467v0,318,190,572,500,570v316,-2,502,-251,502,-591xm-89,-1186r133,-280r236,0r-220,280r-149,0","w":1586,"k":{"\u03a5":66}},"\u038e":{"d":"945,0r0,-621r-565,-845r236,0r289,442v57,87,106,170,149,248v44,-77,97,-163,160,-259r284,-431r226,0r-585,845r0,621r-194,0xm-89,-1186r133,-280r236,0r-220,280r-149,0","w":1752,"k":{"\u03cc":186,"\u03ca":-98,"\u03bf":186,"\u03bc":152,"\u03ba":152,"\u03b9":76,"\u03b7":152,"\u03af":76,"\u03ae":152,"\u03a9":98,"\u039f":115,"\u039b":152,"\u0394":152,"\u0391":152,"\u0390":-170,"\u03c6":186,"\u03c3":186,"\u03b1":186,"\u03a6":115,"\u0398":115}},"\u038f":{"d":"779,-1325v-283,0,-455,262,-455,552v0,294,118,498,354,611r0,162r-571,0r0,-173r320,0v-203,-169,-304,-376,-304,-620v0,-281,127,-492,306,-607v179,-115,511,-120,689,-7v175,111,311,326,311,614v0,244,-101,451,-304,620r320,0r0,173r-570,0r0,-162v237,-111,356,-311,356,-601v0,-300,-170,-562,-452,-562xm-89,-1186r133,-280r236,0r-220,280r-149,0","w":1541,"k":{"\u03ab":47,"\u03a5":47}},"\u0390":{"d":"137,0r0,-1062r180,0r0,1062r-180,0xm233,-1507r186,0r-200,277r-117,0xm418,-1422r173,0r0,192r-173,0r0,-192xm-136,-1422r173,0r0,192r-173,0r0,-192","w":455},"\u0391":{"d":"-3,0r563,-1466r209,0r600,1466r-221,0r-171,-444r-613,0r-161,444r-206,0xm420,-602r497,0r-153,-406v-47,-123,-81,-225,-104,-304v-51,254,-160,480,-240,710","w":1366,"k":{"\u03c7":37,"\u03bd":37,"\u03b3":37,"\u03ab":152,"\u03a5":152,"\u03a4":152,"\u039f":43,"\u03a6":59,"\u0398":43,"\u2019":152," ":113}},"\u0392":{"d":"981,-780v160,45,276,166,276,355v0,305,-215,425,-548,425r-559,0r0,-1466r550,0v217,0,346,53,428,182v39,61,58,126,58,193v0,150,-88,256,-205,311xm344,-850v271,-18,651,83,651,-218v0,-101,-53,-180,-135,-204v-106,-31,-360,-18,-516,-21r0,443xm344,-173r365,0v126,1,174,-10,244,-47v97,-50,140,-242,61,-348v-68,-91,-160,-109,-331,-109r-339,0r0,504","w":1366},"\u0394":{"d":"-2,0r563,-1466r209,0r600,1466r-1372,0xm267,-173r815,0r-317,-835v-47,-125,-82,-227,-104,-304v-18,91,-44,184,-79,280","w":1368,"k":{"\u03ab":152,"\u03a5":152,"\u03a4":119,"\u039f":43,"\u0398":43," ":113}},"\u0395":{"d":"162,0r0,-1466r1060,0r0,173r-866,0r0,449r811,0r0,172r-811,0r0,499r900,0r0,173r-1094,0","w":1366},"\u0396":{"d":"41,0r0,-180r751,-939v53,-67,104,-125,152,-174r-818,0r0,-173r1050,0r0,173r-823,1017r-89,103r936,0r0,173r-1159,0","w":1251},"\u0397":{"d":"164,0r0,-1466r194,0r0,602r762,0r0,-602r194,0r0,1466r-194,0r0,-691r-762,0r0,691r-194,0","w":1479},"\u0399":{"d":"191,0r0,-1466r194,0r0,1466r-194,0","w":569},"\u039a":{"d":"150,0r0,-1466r194,0r0,727r728,-727r263,0r-615,594r642,872r-256,0r-522,-742r-240,234r0,508r-194,0","w":1366,"k":{"\u03ce":25,"\u03cc":25,"\u03c9":25,"\u03bf":25,"\u03be":25,"\u03b8":25,"\u03b6":25,"\u03ac":25,"\u039f":63,"\u03c6":25,"\u03c3":25,"\u03b4":25,"\u03b1":25,"\u03a6":113,"\u0398":63}},"\u039b":{"d":"784,-1466r568,1466r-211,0r-381,-1064v-33,-93,-59,-174,-77,-241v-22,81,-48,161,-78,241r-396,1064r-198,0r573,-1466r200,0","w":1368,"k":{"\u03ab":152,"\u03a5":152,"\u03a4":152,"\u039f":43,"\u0398":43," ":113}},"\u039c":{"d":"152,0r0,-1466r292,0r347,1038r70,217r78,-235r351,-1020r261,0r0,1466r-187,0r0,-1227r-426,1227r-175,0r-424,-1248r0,1248r-187,0","w":1706},"\u039d":{"d":"156,0r0,-1466r199,0r770,1151r0,-1151r186,0r0,1466r-199,0r-770,-1152r0,1152r-186,0","w":1479},"\u039e":{"d":"136,-1466r1059,0r0,173r-1059,0r0,-173xm230,-819r871,0r0,172r-871,0r0,-172xm109,-173r1113,0r0,173r-1113,0r0,-173","w":1331},"\u039f":{"d":"800,25v-432,0,-691,-312,-701,-739v-10,-457,272,-778,702,-778v440,0,700,311,700,761v0,448,-266,756,-701,756xm1301,-732v-5,-346,-170,-593,-499,-593v-137,0,-255,47,-354,141v-99,94,-149,252,-149,473v0,327,198,570,500,570v314,0,507,-246,502,-591","w":1593,"k":{"\u03ab":66,"\u03a5":66,"\u039b":37,"\u0394":43,"\u0391":37}},"\u03a0":{"d":"164,0r0,-1466r1150,0r0,1466r-194,0r0,-1293r-762,0r0,1293r-194,0","w":1479},"\u03a1":{"d":"158,0r0,-1466r553,0v282,-4,433,45,521,224v85,172,46,390,-74,516v-81,85,-223,130,-430,130r-376,0r0,596r-194,0xm731,-769v224,1,341,-72,346,-267v3,-123,-70,-223,-169,-244v-130,-28,-390,-9,-556,-13r0,524r379,0","w":1366,"k":{"\u039b":152,"\u0394":152,"\u0391":152,".":262,",":262," ":37}},"\u03a3":{"d":"1145,-1466r0,173r-787,0r500,532r-500,588r828,0r0,173r-1038,0r0,-202r479,-559r-479,-510r0,-195r997,0","w":1266,"k":{"\u03c0":98,"\u03c4":98}},"\u03a4":{"d":"531,0r0,-1293r-483,0r0,-173r1162,0r0,173r-485,0r0,1293r-194,0","w":1251,"k":{"\u03cd":178,"\u03cc":225,"\u03cb":178,"\u03ca":-188,"\u03c8":150,"\u03c7":113,"\u03c5":176,"\u03bf":225,"\u03bd":113,"\u03bc":150,"\u03b9":76,"\u03b7":150,"\u03b3":178,"\u03b0":178,"\u03ad":225,"\u03ac":225,"\u03a9":37,"\u039f":37,"\u039b":152,"\u0394":152,"\u0391":152,"\u0390":-188,"\u03c6":225,"\u03c3":225,"\u03b5":225,"\u03b1":225,"\u03a6":37,"\u0398":37,";":225,":":225,".":225,",":225," ":37}},"\u03a5":{"d":"571,0r0,-621r-565,-845r236,0r289,442v53,83,103,165,149,248v44,-77,97,-163,160,-259r284,-431r226,0r-585,845r0,621r-194,0","w":1366,"k":{"\u03cc":186,"\u03ca":-121,"\u03bf":186,"\u03bc":152,"\u03ba":152,"\u03b9":76,"\u03b7":152,"\u03b3":98,"\u03af":76,"\u03ae":152,"\u03a9":98,"\u039f":115,"\u039b":152,"\u0394":152,"\u0391":152,"\u0390":-188,"\u03c6":186,"\u03c3":186,"\u03b1":186,"\u03a6":115,"\u0398":115,";":113,":":113,".":262,"-":186,",":262," ":37}},"\u03a7":{"d":"9,0r567,-764r-500,-702r231,0r266,376v55,78,95,138,118,180v122,-189,278,-374,411,-556r211,0r-515,691r555,775r-240,0r-369,-523v-21,-30,-42,-63,-64,-98v-143,229,-288,406,-438,621r-233,0","w":1366},"\u03a8":{"d":"758,-453v-411,-3,-631,-197,-631,-582r0,-431r194,0r0,395v1,327,139,422,437,452r0,-847r194,0r0,847v294,-24,437,-143,437,-476r0,-371r195,0r0,414v0,393,-211,592,-632,599r0,453r-194,0r0,-453","w":1711,"k":{"\u03ce":78,"\u03cc":78,"\u03c9":78,"\u03bf":78,"\u03b8":39,"\u03ac":78,"\u03c6":78,"\u03c3":78,"\u03b4":78,"\u03b1":78}},"\u03a9":{"d":"769,-1325v-283,0,-455,262,-455,552v0,294,118,498,354,611r0,162r-571,0r0,-173r320,0v-203,-169,-304,-376,-304,-620v0,-281,127,-492,306,-607v179,-115,511,-120,689,-7v175,111,311,326,311,614v0,244,-101,451,-304,620r320,0r0,173r-570,0r0,-162v237,-111,356,-311,356,-601v0,-300,-170,-562,-452,-562","w":1531,"k":{"\u03ab":47,"\u03a5":47}},"\u03aa":{"d":"4,-1556r0,-205r188,0r0,205r-188,0xm377,-1556r0,-205r188,0r0,205r-188,0xm191,0r0,-1466r194,0r0,1466r-194,0","w":569},"\u03ab":{"d":"397,-1556r0,-205r188,0r0,205r-188,0xm770,-1556r0,-205r188,0r0,205r-188,0xm571,0r0,-621r-565,-845r236,0r289,442v53,83,103,165,149,248v44,-77,97,-163,160,-259r284,-431r226,0r-585,845r0,621r-194,0","w":1366,"k":{"\u03cc":186,"\u03ca":-98,"\u03bf":186,"\u03bc":152,"\u03ba":152,"\u03b9":76,"\u03b7":152,"\u03af":76,"\u03ae":152,"\u03a9":98,"\u039f":115,"\u039b":152,"\u0394":152,"\u0391":152,"\u0390":-170,"\u03c6":186,"\u03c3":186,"\u03b1":186,"\u03a6":115,"\u0398":115," ":37}},"\u03ac":{"d":"466,-1194r133,-280r236,0r-220,280r-149,0xm519,-1086v190,0,265,81,351,204v5,-23,22,-83,53,-180r184,0v-47,147,-90,324,-129,531v47,257,90,434,129,531r-179,0v-29,-67,-50,-131,-65,-194v-55,145,-171,218,-347,218v-287,0,-444,-245,-444,-557v0,-321,154,-553,447,-553xm829,-541v0,-227,-86,-396,-280,-396v-197,0,-279,177,-279,404v0,221,75,409,269,409v193,0,290,-187,290,-417","w":1184},"\u03ad":{"d":"366,-1194r133,-280r236,0r-220,280r-149,0xm127,-778v0,-179,141,-308,354,-308v137,0,253,48,348,144r-129,104v-82,-62,-159,-93,-230,-93v-103,0,-169,64,-169,148v0,125,133,176,286,162r0,151v-177,-14,-297,41,-302,178v-4,95,92,168,189,168v94,0,182,-44,264,-131r129,109v-107,113,-239,170,-398,170v-222,0,-371,-126,-371,-316v0,-121,59,-206,176,-257v-98,-55,-147,-132,-147,-229","w":913},"\u03ae":{"d":"466,-1194r133,-280r236,0r-220,280r-149,0xm599,-930v-189,0,-280,119,-280,350r0,580r-180,0r0,-1062r162,0r0,151v78,-117,191,-175,338,-175v163,0,295,80,335,194v19,55,28,135,28,239r0,1060r-180,0r0,-1053v-2,-184,-50,-284,-223,-284"},"\u03af":{"d":"99,-1194r133,-280r236,0r-220,280r-149,0xm137,0r0,-1062r180,0r0,1062r-180,0","w":455},"\u03b0":{"d":"986,-440v6,297,-155,459,-429,464v-187,4,-328,-100,-383,-220v-26,-58,-38,-137,-38,-237r0,-629r180,0r0,629v-6,189,89,303,244,309v107,4,195,-76,224,-152v15,-40,23,-97,23,-171r0,-615r179,0r0,622xm567,-1507r186,0r-200,277r-117,0xm752,-1422r173,0r0,192r-173,0r0,-192xm198,-1422r173,0r0,192r-173,0r0,-192","w":1120},"\u03b2":{"d":"1085,-415v0,236,-172,439,-434,439v-144,0,-255,-53,-332,-159r0,542r-179,0r0,-1413v2,-231,53,-337,202,-422v74,-42,156,-63,247,-63v240,0,402,164,408,368v5,175,-133,292,-275,317v217,16,363,169,363,391xm628,-108v238,0,340,-295,216,-484v-75,-115,-177,-142,-366,-141r0,-131v216,1,346,-62,352,-249v4,-131,-115,-230,-250,-230v-114,0,-228,74,-246,158v-31,143,-15,428,-15,613v0,222,11,300,127,399v52,44,113,65,182,65","w":1178},"\u03b3":{"d":"25,-1062r189,0r297,837r304,-837r184,0r-397,1062r0,407r-183,0r0,-407","w":1024},"\u03b6":{"d":"234,-1466r652,0r0,122v-179,111,-330,255,-452,434v-122,179,-182,345,-182,497v0,166,72,230,229,246v188,19,253,16,336,119v74,92,61,236,-11,331v-77,102,-164,146,-330,148r49,-166v112,-13,168,-60,168,-141v1,-57,-45,-102,-93,-112v-26,-6,-75,-11,-148,-13v-194,-4,-286,-79,-342,-210v-26,-62,-38,-132,-38,-210v0,-158,57,-321,171,-489v114,-168,250,-304,407,-410r-416,0r0,-146","w":903,"k":{"\u03c0":86,"\u03ce":137,"\u03cc":137,"\u03c9":137,"\u03bf":137,"\u03bd":86,"\u03ba":37,"\u03b9":37,"\u03b8":98,"\u03b7":37,"\u03b3":86,"\u03ae":37,"\u03ac":137,"\u03c6":137,"\u03c4":86,"\u03c3":137,"\u03b4":76,"\u03b1":137}},"\u03b7":{"d":"599,-930v-189,0,-280,119,-280,350r0,580r-180,0r0,-1062r162,0r0,151v78,-117,191,-175,338,-175v163,0,295,80,335,194v19,55,28,135,28,239r0,1060r-180,0r0,-1053v-2,-184,-50,-284,-223,-284"},"\u03b8":{"d":"92,-733v0,-505,159,-758,478,-758v319,0,478,253,478,758v0,505,-159,757,-478,757v-319,0,-478,-252,-478,-757xm278,-806r584,0v-7,-209,-37,-350,-90,-425v-53,-75,-121,-112,-204,-112v-186,0,-283,179,-290,537xm862,-661r-584,0v7,358,105,537,292,537v188,0,285,-179,292,-537","k":{"\u03bb":39}},"\u03b9":{"d":"137,0r0,-1062r180,0r0,1062r-180,0","w":455},"\u03ba":{"d":"134,-1062r179,0r0,417r431,-417r238,0r-475,441r516,621r-230,0r-414,-500r-66,61r0,439r-179,0r0,-1062","w":1024,"k":{"\u03ce":25,"\u03cc":25,"\u03c9":25,"\u03c2":25,"\u03bf":25,"\u03be":25,"\u03b8":25,"\u03b6":25,"\u03ac":25,"\u03c6":25,"\u03c3":25,"\u03b4":25,"\u03b1":25}},"\u03bb":{"d":"511,-794r-297,794r-190,0r394,-1042r-158,-424r190,0r548,1466r-190,0","w":1024,"k":{"\u03ce":31,"\u03cd":49,"\u03cc":31,"\u03c9":31,"\u03c5":49,"\u03c2":47,"\u03bf":31,"\u03be":31,"\u03ac":31,"\u03c6":37,"\u03c3":31,"\u03b4":31,"\u03b1":31}},"\u03bc":{"d":"591,25v-130,0,-184,-42,-253,-132r0,514r-178,0r0,-1469r178,0v4,222,-18,625,26,768v27,89,109,155,219,156v112,1,204,-72,232,-158v44,-137,21,-550,26,-766r177,0r0,1062r-161,0r0,-126v-64,101,-129,151,-266,151","w":1180},"\u03bd":{"d":"430,0r-404,-1062r190,0r228,636v25,69,47,140,68,214v16,-56,38,-123,67,-202r236,-648r185,0r-402,1062r-168,0","w":1024},"\u03be":{"d":"146,-1168v0,-204,200,-332,448,-323r178,0r0,149r-147,0v-183,0,-311,38,-311,187v0,115,100,172,299,172r147,0r0,149v-199,3,-310,56,-406,179v-88,112,-111,283,-22,400v38,50,118,81,242,96v149,18,212,41,269,137v75,126,35,270,-72,358v-73,61,-171,94,-294,95r46,-167v107,-3,182,-57,182,-141v0,-68,-57,-108,-171,-121v-295,-32,-442,-173,-442,-422v1,-223,157,-388,325,-458v-164,-11,-271,-141,-271,-290","w":917,"k":{"\u03cc":55,"\u03c2":55,"\u03bf":55,"\u03be":55,"\u03b6":55,"\u03ac":55,"\u03c6":55,"\u03c3":55,"\u03b4":55,"\u03b1":55}},"\u03bf":{"d":"566,24v-313,-1,-498,-220,-498,-555v0,-337,186,-552,498,-555v302,-3,497,222,497,540v0,266,-77,412,-241,505v-78,44,-163,65,-256,65xm566,-937v-205,0,-313,167,-313,406v0,240,107,407,313,407v206,0,312,-170,312,-413v0,-232,-111,-400,-312,-400","k":{"\u03c0":29,"\u03c7":55,"\u03bb":39,"\u03c4":29}},"\u03c1":{"d":"1093,-532v0,307,-177,558,-470,556v-131,0,-235,-42,-312,-125r0,508r-180,0r0,-901v-2,-368,130,-586,465,-592v306,-5,497,241,497,554xm603,-124v202,0,305,-168,305,-398v0,-148,-30,-254,-91,-318v-61,-64,-132,-97,-215,-97v-208,0,-289,170,-289,420v0,233,86,393,290,393","w":1165,"k":{"\u03c0":29,"\u03bb":39,"\u03c4":29}},"\u03c2":{"d":"423,252v141,36,307,-5,307,-130v0,-36,-14,-63,-40,-82v-26,-19,-81,-39,-165,-56v-258,-52,-439,-202,-439,-473v0,-161,59,-299,172,-419v157,-168,438,-219,708,-144r-42,150v-75,-23,-149,-35,-224,-35v-327,0,-560,353,-374,623v42,61,131,104,260,140v157,44,230,59,298,160v25,37,35,82,35,132v2,191,-186,313,-388,313v-45,0,-95,-5,-152,-14","w":987},"\u03c5":{"d":"986,-440v6,297,-155,459,-429,464v-187,4,-328,-100,-383,-220v-26,-58,-38,-137,-38,-237r0,-629r180,0r0,629v-6,189,89,303,244,309v107,4,195,-76,224,-152v15,-40,23,-97,23,-171r0,-615r179,0r0,622","w":1120},"\u03c7":{"d":"48,-1062r196,0r292,588r302,-588r198,0r-390,724r410,745r-205,0r-315,-613r-318,613r-201,0r409,-739","w":1075,"k":{"\u03ce":55,"\u03cc":55,"\u03c9":55,"\u03c2":55,"\u03bf":55,"\u03b6":55,"\u03ac":55,"\u03c6":55,"\u03c3":55,"\u03b4":55,"\u03b1":55}},"\u03c8":{"d":"122,-1062r179,0r0,524v3,191,14,276,125,352v51,35,123,54,214,59r0,-935r180,0r0,935v159,-7,271,-68,312,-181v19,-51,26,-128,26,-230r0,-524r179,0v-8,264,31,640,-39,827v-59,157,-237,257,-478,259r0,383r-180,0r0,-383v-257,-1,-442,-110,-495,-303v-51,-186,-17,-542,-23,-783","w":1460},"\u03c9":{"d":"476,24v-265,0,-389,-245,-389,-541v0,-176,53,-358,158,-545r174,0v-99,219,-149,405,-149,556v0,117,22,210,64,282v66,114,186,144,283,57v82,-74,93,-155,93,-316r0,-311r179,0v12,231,-43,517,93,628v101,82,217,56,283,-58v41,-72,64,-165,64,-282v0,-151,-49,-337,-148,-556r173,0v105,187,158,369,158,545v0,177,-37,311,-110,403v-73,92,-166,138,-279,138v-151,0,-258,-80,-323,-239v-65,159,-173,239,-324,239","w":1599,"k":{"\u03c0":29,"\u03c7":55,"\u03bb":39,"\u03c4":29}},"\u03ca":{"d":"-47,-1270r0,-205r188,0r0,205r-188,0xm326,-1270r0,-205r188,0r0,205r-188,0xm137,0r0,-1062r180,0r0,1062r-180,0","w":455},"\u03cb":{"d":"301,-1270r0,-205r188,0r0,205r-188,0xm674,-1270r0,-205r188,0r0,205r-188,0xm986,-440v6,297,-155,459,-429,464v-187,4,-328,-100,-383,-220v-26,-58,-38,-137,-38,-237r0,-629r180,0r0,629v-6,189,89,303,244,309v107,4,195,-76,224,-152v15,-40,23,-97,23,-171r0,-615r179,0r0,622","w":1120},"\u03cc":{"d":"466,-1194r133,-280r236,0r-220,280r-149,0xm566,24v-313,-1,-498,-220,-498,-555v0,-337,186,-552,498,-555v302,-3,497,222,497,540v0,266,-77,412,-241,505v-78,44,-163,65,-256,65xm566,-937v-205,0,-313,167,-313,406v0,240,107,407,313,407v206,0,312,-170,312,-413v0,-232,-111,-400,-312,-400","k":{"\u03c0":29,"\u03c7":55,"\u03bb":39,"\u03c4":29}},"\u03cd":{"d":"442,-1194r133,-280r236,0r-220,280r-149,0xm986,-440v6,297,-155,459,-429,464v-187,4,-328,-100,-383,-220v-26,-58,-38,-137,-38,-237r0,-629r180,0r0,629v-6,189,89,303,244,309v107,4,195,-76,224,-152v15,-40,23,-97,23,-171r0,-615r179,0r0,622","w":1120},"\u03ce":{"d":"702,-1194r133,-280r236,0r-220,280r-149,0xm476,24v-265,0,-389,-245,-389,-541v0,-176,53,-358,158,-545r174,0v-99,219,-149,405,-149,556v0,117,22,210,64,282v66,114,186,144,283,57v82,-74,93,-155,93,-316r0,-311r179,0v12,231,-43,517,93,628v101,82,217,56,283,-58v41,-72,64,-165,64,-282v0,-151,-49,-337,-148,-556r173,0v105,187,158,369,158,545v0,177,-37,311,-110,403v-73,92,-166,138,-279,138v-151,0,-258,-80,-323,-239v-65,159,-173,239,-324,239","w":1599,"k":{"\u03c0":29,"\u03c7":55,"\u03bb":39,"\u03c4":29}},"\u0401":{"d":"411,-1556r0,-205r188,0r0,205r-188,0xm784,-1556r0,-205r188,0r0,205r-188,0xm162,0r0,-1466r1060,0r0,173r-866,0r0,449r811,0r0,172r-811,0r0,499r900,0r0,173r-1094,0","w":1367},"\u0402":{"d":"1491,-445v0,-206,-137,-329,-367,-329v-108,0,-239,31,-392,94r0,680r-194,0r0,-1293r-488,0r0,-173r1170,0r0,173r-488,0r0,456v169,-66,315,-99,440,-99v293,0,519,208,517,485v0,119,-40,227,-117,327v-119,156,-343,179,-576,116r31,-164v51,25,103,37,158,37v194,0,306,-127,306,-310","w":1771},"\u0403":{"d":"473,-1556r133,-280r236,0r-220,280r-149,0xm161,-1466r948,0r0,173r-754,0r0,1293r-194,0r0,-1466","w":1109,"k":{"\u2014":45,".":250,",":250}},"\u0404":{"d":"312,-670v8,299,175,532,460,532v233,0,380,-124,439,-372r187,49v-85,324,-289,486,-612,486v-231,0,-400,-76,-516,-223v-178,-226,-213,-626,-84,-916v93,-209,307,-377,604,-377v314,0,523,172,589,427r-190,50v-55,-205,-189,-307,-400,-307v-292,0,-456,196,-469,478r537,0r0,173r-545,0","w":1472},"\u0405":{"d":"1259,-414v0,283,-242,438,-542,439v-263,1,-441,-76,-545,-233v-51,-78,-77,-165,-80,-263r183,-16v20,231,188,338,433,338v193,0,364,-71,364,-249v0,-117,-71,-166,-172,-207v-76,-31,-474,-121,-544,-163v-117,-70,-208,-159,-208,-319v0,-269,232,-404,516,-404v315,0,533,145,551,438r-186,14v-22,-191,-138,-282,-357,-281v-117,0,-201,23,-256,64v-94,71,-104,202,-24,286v61,64,535,156,617,198v144,75,250,170,250,358","w":1366},"\u0406":{"d":"191,0r0,-1466r194,0r0,1466r-194,0","w":569},"\u0407":{"d":"4,-1556r0,-205r188,0r0,205r-188,0xm377,-1556r0,-205r188,0r0,205r-188,0xm191,0r0,-1466r194,0r0,1466r-194,0","w":569},"\u0408":{"d":"865,-467v8,324,-119,492,-412,492v-267,0,-402,-161,-394,-441r175,-24v8,191,54,292,218,292v172,0,219,-104,219,-308r0,-1010r194,0r0,999","w":1024},"\u0409":{"d":"1178,-1466r0,626v232,3,565,-8,703,56v195,90,273,402,137,600v-102,148,-209,184,-461,184r-573,0r0,-1293r-530,0r0,755v0,153,-8,266,-22,337v-25,133,-115,225,-265,226v-43,0,-94,-8,-154,-24r33,-172v72,33,142,27,181,-29v22,-33,33,-111,33,-234r0,-1032r918,0xm1566,-165v204,6,309,-68,315,-256v4,-123,-70,-208,-171,-233v-100,-24,-375,-18,-532,-19r0,508r388,0","w":2165,"k":{"\u2019":160}},"\u040a":{"d":"1082,-1466r0,626v213,2,504,-10,652,35v147,44,259,192,259,378v0,184,-119,350,-251,393v-67,23,-165,34,-293,34r-561,0r0,-673r-530,0r0,673r-194,0r0,-1466r194,0r0,626r530,0r0,-626r194,0xm1082,-165v174,-5,412,18,548,-18v87,-23,158,-115,155,-238v-3,-122,-62,-200,-165,-229v-91,-25,-378,-23,-538,-23r0,508","w":2069,"k":{"\u2019":137}},"\u040b":{"d":"1462,-379v8,-255,-72,-393,-303,-393v-107,0,-249,31,-426,92r0,680r-194,0r0,-1293r-490,0r0,-173r1173,0r0,173r-489,0r0,451v182,-63,328,-94,437,-94v209,-2,379,94,440,241v65,157,41,465,46,695r-194,0r0,-379","w":1749},"\u040c":{"d":"525,-1556r133,-280r236,0r-220,280r-149,0xm1172,-1297v-86,-5,-175,-2,-216,43v-29,32,-64,95,-105,192v-83,200,-100,243,-247,312v95,26,188,113,280,262r302,488r-241,0r-245,-398v-67,-110,-124,-185,-169,-226v-45,-41,-104,-62,-176,-62r0,686r-194,0r0,-1466r194,0r0,642v89,0,151,-18,187,-52v59,-37,185,-373,238,-450v51,-73,153,-142,274,-141v75,0,114,1,118,2r0,168","w":1193},"\u040e":{"d":"692,-1680v110,0,159,-42,178,-135r123,0v-18,160,-121,259,-295,259v-176,0,-278,-97,-296,-259r123,0v18,86,68,135,167,135xm10,-1466r196,0r478,898r418,-898r193,0r-550,1140v-69,143,-124,237,-169,280v-88,84,-231,81,-373,31r0,-166v90,52,210,68,287,-1v34,-30,73,-99,114,-207","w":1301},"\u040f":{"d":"823,0r0,407r-173,0r0,-407r-490,0r0,-1466r194,0r0,1293r764,0r0,-1293r195,0r0,1466r-490,0","w":1472},"\u0410":{"d":"-3,0r563,-1466r209,0r600,1466r-221,0r-171,-444r-613,0r-161,444r-206,0xm420,-602r497,0r-153,-406v-47,-123,-81,-225,-104,-304v-51,254,-160,480,-240,710","w":1366,"k":{"\u044d":-45,"\u0444":-23,"\u0443":23,"\u0442":45,"\u0430":-23,"\u042d":45,"\u0427":160,"\u0424":68,"\u0423":90,"\u0422":160,"\u0421":45,"\u041f":23,"\u041e":45,"\u041b":-45,"\u0417":23,"\u0414":-68,"\u2019":115}},"\u0411":{"d":"167,-1466r951,0r0,173r-757,0r0,452v218,3,504,-13,659,37v144,47,254,192,252,378v-2,168,-81,295,-197,365v-66,40,-177,61,-334,61r-574,0r0,-1466xm749,-165v196,0,312,-72,314,-256v1,-124,-68,-207,-170,-233v-101,-26,-374,-19,-532,-20r0,509r388,0","w":1344,"k":{"\u0443":45,"\u043b":23,"\u042f":23,"\u042d":23,"\u042a":68,"\u0427":92,"\u0425":45,"\u0424":23,"\u0423":47,"\u0422":92,"\u0421":23,"\u041e":23,"\u0417":23,"\u0410":45}},"\u0412":{"d":"981,-780v160,45,276,166,276,355v0,305,-215,425,-548,425r-559,0r0,-1466r550,0v217,0,346,53,428,182v39,61,58,126,58,193v0,150,-88,256,-205,311xm344,-850v271,-18,651,83,651,-218v0,-101,-53,-180,-135,-204v-106,-31,-360,-18,-516,-21r0,443xm344,-173r365,0v126,1,174,-10,244,-47v97,-50,140,-242,61,-348v-68,-91,-160,-109,-331,-109r-339,0r0,504","w":1366,"k":{"\u044f":23,"\u0447":68,"\u0445":23,"\u0443":23,"\u0442":68,"\u043c":23,"\u0434":23,"\u042f":68,"\u042a":115,"\u0427":92,"\u0425":90,"\u0424":68,"\u0423":68,"\u0422":137,"\u0421":68,"\u041e":68,"\u041b":23,"\u0417":68,"\u0416":45,"\u0414":45,"\u0410":68}},"\u0413":{"d":"161,-1466r948,0r0,173r-754,0r0,1293r-194,0r0,-1466","w":1109,"k":{"\u044f":137,"\u044e":115,"\u044c":115,"\u044b":115,"\u0443":137,"\u0440":115,"\u043e":137,"\u043d":115,"\u043c":115,"\u043b":115,"\u0438":115,"\u0435":137,"\u0434":137,"\u0432":115,"\u0430":115,"\u042f":68,"\u0421":92,"\u041e":115,"\u041c":47,"\u041b":115,"\u0417":45,"\u0414":137,"\u0410":137,"\u2014":45,".":250,",":250}},"\u0414":{"d":"291,-1466r892,0r0,1293r132,0r0,515r-173,0r0,-342r-969,0r0,342r-173,0r0,-515r114,0v118,-178,177,-538,177,-1079r0,-214xm989,-1293r-511,0v2,335,-39,881,-165,1120r676,0r0,-1120","w":1387,"k":{"\u0443":-45,"\u043e":-23,"\u0437":-68,"\u0427":70,"\u0424":45,"\u0423":-23}},"\u0415":{"d":"162,0r0,-1466r1060,0r0,173r-866,0r0,449r811,0r0,172r-811,0r0,499r900,0r0,173r-1094,0","w":1366,"k":{"\u0441":23,"\u0417":45}},"\u0416":{"d":"1869,-1297v-86,-5,-171,2,-215,43v-58,54,-163,354,-216,408v-35,35,-77,71,-136,96v96,27,188,115,279,262r302,488r-240,0v-123,-189,-272,-477,-410,-621v-43,-45,-107,-65,-188,-65r0,686r-199,0r0,-686v-64,0,-120,18,-170,50v-49,32,-119,133,-183,238r-245,398r-241,0r302,-488v92,-149,185,-236,280,-262v-149,-68,-168,-121,-248,-312v-43,-104,-79,-169,-108,-197v-42,-40,-129,-43,-212,-38r0,-168v7,-1,45,-2,112,-2v129,-2,223,64,277,139v53,74,182,416,240,452v35,33,100,51,196,52r0,-642r199,0r0,642v95,0,158,-21,197,-52v56,-43,183,-374,236,-450v50,-73,153,-142,273,-141v63,0,103,1,118,2r0,168","w":1891,"k":{"\u0443":23,"\u043e":23,"\u0435":25,"\u0430":-23,"\u042a":-45,"\u0423":-45,"\u0422":-23,"\u0421":23,"\u041e":45,"\u0417":23}},"\u0417":{"d":"1154,-419v-2,269,-242,444,-535,444v-277,0,-458,-146,-541,-439r185,-48v30,143,164,321,355,321v184,0,332,-106,332,-270v0,-176,-156,-267,-350,-264r-93,0r0,-169v175,-3,250,-3,331,-94v36,-42,54,-91,54,-145v-1,-137,-123,-238,-276,-238v-151,0,-261,87,-298,203v-20,61,-30,106,-30,136r-186,-42v46,-311,218,-467,516,-467v259,0,467,168,467,399v0,137,-65,243,-194,318v142,38,264,176,263,355","w":1237,"k":{"\u042f":23,"\u0427":45,"\u0424":23,"\u0423":23,"\u0422":45,"\u0421":23,"\u041e":23,"\u041b":23}},"\u0418":{"d":"161,-1466r176,0r0,1161r780,-1161r195,0r0,1466r-176,0r0,-1158r-781,1158r-194,0r0,-1466","w":1472},"\u0419":{"d":"712,-1680v110,0,159,-42,178,-135r123,0v-18,160,-121,259,-295,259v-176,0,-278,-97,-296,-259r123,0v18,86,68,135,167,135xm161,-1466r176,0r0,1161r780,-1161r195,0r0,1466r-176,0r0,-1158r-781,1158r-194,0r0,-1466","w":1472},"\u041a":{"d":"1172,-1297v-86,-5,-175,-2,-216,43v-29,32,-64,95,-105,192v-83,200,-100,243,-247,312v95,26,188,113,280,262r302,488r-241,0r-245,-398v-67,-110,-124,-185,-169,-226v-45,-41,-104,-62,-176,-62r0,686r-194,0r0,-1466r194,0r0,642v89,0,151,-18,187,-52v59,-37,185,-373,238,-450v51,-73,153,-142,274,-141v75,0,114,1,118,2r0,168","w":1193,"k":{"\u0424":70,"\u0423":-23,"\u0421":23,"\u041e":23,"\u0417":23}},"\u041b":{"d":"265,-1466r918,0r0,1466r-194,0r0,-1293r-530,0r0,755v0,153,-7,266,-21,337v-25,133,-116,225,-266,226v-43,0,-94,-8,-154,-24r33,-172v72,33,142,27,181,-29v22,-33,33,-111,33,-234r0,-1032","w":1344,"k":{"\u0443":-23,"\u0431":-23,"\u0424":23}},"\u041c":{"d":"152,0r0,-1466r292,0r347,1038r70,217r78,-235r351,-1020r261,0r0,1466r-187,0r0,-1227r-426,1227r-175,0r-424,-1248r0,1248r-187,0","w":1706,"k":{"\u044d":-23,"\u0447":23,"\u0443":-23,"\u0441":-23,"\u043e":-23,"\u0435":-23,"\u0430":-23,"\u0427":23,"\u0424":23}},"\u041d":{"d":"164,0r0,-1466r194,0r0,602r762,0r0,-602r194,0r0,1466r-194,0r0,-691r-762,0r0,691r-194,0","w":1479},"\u041e":{"d":"800,25v-432,0,-691,-312,-701,-739v-10,-457,272,-778,702,-778v440,0,700,311,700,761v0,448,-266,756,-701,756xm1301,-732v-5,-346,-170,-593,-499,-593v-137,0,-255,47,-354,141v-99,94,-149,252,-149,473v0,327,198,570,500,570v314,0,507,-246,502,-591","w":1593,"k":{"\u0445":23,"\u043b":23,"\u0434":45,"\u042f":45,"\u0427":45,"\u0425":92,"\u0423":45,"\u041b":23,"\u0416":45,"\u0414":45,"\u0410":45}},"\u041f":{"d":"160,-1466r1153,0r0,1466r-195,0r0,-1293r-764,0r0,1293r-194,0r0,-1466","w":1472},"\u0420":{"d":"158,0r0,-1466r553,0v282,-4,433,45,521,224v85,172,46,390,-74,516v-81,85,-223,130,-430,130r-376,0r0,596r-194,0xm731,-769v224,1,341,-72,346,-267v3,-123,-70,-223,-169,-244v-130,-28,-390,-9,-556,-13r0,524r379,0","w":1366,"k":{"\u044f":68,"\u044d":45,"\u043e":90,"\u0435":90,"\u0434":160,"\u0430":68,"\u042f":45,"\u0425":92,"\u0424":23,"\u0423":45,"\u0422":92,"\u0421":23,"\u041e":45,"\u041c":23,"\u041b":115,"\u0417":45,"\u0416":23,"\u0414":137,"\u0410":137,";":45,":":45,".":387,",":387}},"\u0421":{"d":"775,-141v242,0,385,-152,429,-373r194,49v-71,291,-272,490,-607,490v-328,0,-510,-141,-611,-376v-52,-122,-78,-253,-78,-393v1,-452,256,-747,692,-747v310,0,508,174,579,427r-191,45v-61,-191,-167,-303,-392,-306v-338,-4,-488,250,-488,580v0,246,69,444,224,535v77,46,160,69,249,69","w":1479,"k":{"\u0447":23,"\u0436":-45,"\u0430":-23,"\u042d":23,"\u042a":70,"\u0427":68,"\u0425":115,"\u0423":68,"\u0422":68,"\u041e":45,"\u041c":23,"\u041b":68,"\u0417":23,"\u0414":45,"\u0410":45}},"\u0422":{"d":"531,0r0,-1293r-483,0r0,-173r1162,0r0,173r-485,0r0,1293r-194,0","w":1251,"k":{"\u044f":115,"\u044e":90,"\u044c":90,"\u044b":90,"\u0449":90,"\u0445":90,"\u0443":115,"\u0441":115,"\u0440":115,"\u043f":90,"\u043e":160,"\u043c":90,"\u043b":92,"\u043a":90,"\u0438":90,"\u0435":115,"\u0432":90,"\u0430":92,"\u042f":45,"\u0424":68,"\u041e":92,"\u041b":45,"\u0417":23,"\u0416":-23,"\u0414":68,"\u0410":68,"\u2014":45,".":227,",":227}},"\u0423":{"d":"10,-1466r196,0r478,898r418,-898r193,0r-550,1140v-69,143,-124,237,-169,280v-88,84,-231,81,-373,31r0,-166v90,52,210,68,287,-1v34,-30,73,-99,114,-207","w":1301,"k":{"\u044f":137,"\u044e":92,"\u0449":92,"\u0448":92,"\u0446":92,"\u0445":92,"\u0441":137,"\u0440":92,"\u043f":92,"\u043e":137,"\u043d":92,"\u043c":92,"\u043b":137,"\u043a":92,"\u0439":68,"\u0438":92,"\u0437":115,"\u0436":68,"\u0435":137,"\u0434":160,"\u0433":92,"\u0432":115,"\u0431":45,"\u042f":45,"\u042d":45,"\u0424":68,"\u041e":68,"\u041b":68,"\u0417":45,"\u0414":92,"\u0410":137,"\u2014":23,";":45,":":45,".":272,",":272}},"\u0424":{"d":"82,-740v0,-335,278,-541,606,-550r0,-188r182,0r0,188v340,10,604,222,604,550v0,327,-257,542,-604,551r0,189r-182,0r0,-189v-327,-8,-606,-218,-606,-551xm870,-356v238,-9,405,-142,404,-384v0,-241,-164,-373,-404,-384r0,768xm688,-1123v-232,9,-405,143,-405,383v0,239,171,375,405,383r0,-766","w":1557,"k":{"\u043b":68,"\u042f":70,"\u0427":45,"\u0423":92,"\u0422":115,"\u041b":68,"\u0414":68,"\u0410":45}},"\u0425":{"d":"9,0r567,-764r-500,-702r231,0r266,376v55,78,95,138,118,180v122,-189,278,-374,411,-556r211,0r-515,691r555,775r-240,0r-369,-523v-21,-30,-42,-63,-64,-98v-143,229,-288,406,-438,621r-233,0","w":1366,"k":{"\u0443":45,"\u043e":23,"\u042d":70,"\u0424":68,"\u0421":68,"\u041e":68,"\u0417":45}},"\u0426":{"d":"159,-1466r194,0r0,1293r764,0r0,-1293r195,0r0,1293r134,0r0,580r-172,0r0,-407r-1115,0r0,-1466","w":1515,"k":{"\u0430":-45,"\u041e":45}},"\u0427":{"d":"1204,0r-194,0r0,-591v-174,65,-326,97,-457,97v-199,0,-376,-109,-427,-253v-62,-174,-32,-481,-39,-719r194,0v8,245,-38,625,87,728v59,49,129,76,211,76v137,0,280,-30,431,-91r0,-713r194,0r0,1466","w":1365},"\u0428":{"d":"161,-1466r194,0r0,1293r487,0r0,-1293r194,0r0,1293r487,0r0,-1293r194,0r0,1466r-1556,0r0,-1466","w":1877},"\u0429":{"d":"161,-1466r194,0r0,1293r487,0r0,-1293r194,0r0,1293r487,0r0,-1293r194,0r0,1293r133,0r0,580r-173,0r0,-407r-1516,0r0,-1466","w":1920,"k":{"\u0443":-45,"\u0430":-23}},"\u042a":{"d":"0,-1466r640,0r0,626r351,0v230,0,380,44,453,128v148,169,140,443,-18,592v-84,79,-224,120,-423,120r-557,0r0,-1293r-446,0r0,-173xm995,-165v222,-1,343,-56,347,-257v2,-123,-75,-212,-177,-234v-104,-23,-368,-16,-525,-17r0,508r355,0","w":1621,"k":{"\u042f":68,"\u2019":137}},"\u042b":{"d":"168,-1466r194,0r0,626r350,0v229,0,379,43,452,127v147,167,143,424,-7,585v-78,84,-221,128,-431,128r-558,0r0,-1466xm717,-165v222,-1,344,-56,348,-258v3,-123,-77,-211,-179,-233v-104,-22,-368,-16,-524,-17r0,508r355,0xm1449,-1466r194,0r0,1466r-194,0r0,-1466","w":1813},"\u042c":{"d":"165,-1466r194,0r0,626v233,3,570,-14,705,57v126,66,206,192,206,357v0,113,-39,213,-116,298v-77,85,-221,128,-432,128r-557,0r0,-1466xm714,-165v243,4,339,-71,347,-261v5,-120,-74,-206,-174,-229v-103,-23,-371,-17,-528,-18r0,508r355,0","w":1344,"k":{"\u042f":92,"\u042d":23,"\u0427":160,"\u0425":92,"\u0422":205,"\u0421":45,"\u041e":45,"\u041c":45,"\u041b":70,"\u0417":23,"\u0416":68,"\u0414":45,"\u0410":45,"\u2019":160}},"\u042d":{"d":"1160,-670v-8,299,-175,532,-460,532v-233,0,-380,-124,-439,-372r-187,49v85,324,289,486,612,486v231,0,400,-76,516,-223v178,-226,213,-626,84,-916v-93,-209,-307,-377,-604,-377v-314,0,-523,172,-589,427r190,50v55,-205,189,-307,400,-307v292,0,456,196,469,478r-537,0r0,173r545,0","w":1472,"k":{"\u044f":23,"\u043c":23,"\u043b":68,"\u0436":-23,"\u0434":68,"\u042f":45,"\u0425":70,"\u041b":68,"\u0417":23,"\u0416":25,"\u0414":68}},"\u042e":{"d":"1296,25v-382,0,-622,-284,-652,-661r-286,0r0,636r-194,0r0,-1466r194,0r0,658r282,0v17,-384,278,-683,661,-683v400,-1,664,322,664,750v0,445,-256,766,-669,766xm1303,-1327v-314,0,-468,260,-468,601v0,336,161,585,464,585v312,0,467,-250,467,-597v0,-333,-156,-589,-463,-589","w":2069,"k":{"\u043c":23,"\u043b":92,"\u0434":92,"\u0427":68,"\u0425":92,"\u0422":115,"\u0421":23,"\u041e":23,"\u041b":92,"\u0416":45,"\u0414":90,"\u0410":68}},"\u042f":{"d":"146,-1066v0,241,167,370,413,399v-140,66,-197,141,-278,268r-255,399r244,0r194,-305v89,-134,139,-229,239,-300v59,-41,91,-47,196,-46r225,0r0,651r194,0r0,-1466r-650,0v-249,2,-369,33,-461,179v-42,66,-61,140,-61,221xm346,-1066v0,-161,124,-238,314,-238r464,0r0,485r-417,0v-218,5,-361,-60,-361,-247","w":1479},"\u0430":{"d":"995,-445v6,270,-11,308,57,445r-188,0v-19,-37,-31,-81,-36,-131v-115,96,-212,150,-391,155v-213,5,-363,-111,-363,-304v0,-172,117,-269,258,-305v119,-31,406,-52,481,-89v18,-197,-77,-263,-255,-263v-179,0,-237,55,-277,202r-176,-24v41,-230,210,-327,479,-327v221,0,367,58,402,235v17,88,7,287,9,406xm291,-370v-76,130,31,253,189,253v143,0,256,-71,304,-170v24,-50,31,-154,29,-246v-75,43,-348,64,-451,104v-31,12,-56,33,-71,59","k":{"\u0447":45,"\u0443":23,"\u0442":45,"\u0437":23}},"\u0431":{"d":"609,-1062v288,-3,483,226,483,532v0,237,-102,395,-232,489v-130,95,-439,83,-552,-21v-174,-161,-216,-303,-217,-692v0,-281,48,-470,143,-567v95,-97,241,-146,438,-146v123,0,192,-2,209,-6v17,-4,27,-13,32,-28r159,2v-27,213,-110,215,-367,215v-259,0,-354,22,-421,180v-26,62,-36,145,-39,244v80,-118,187,-200,364,-202xm603,-121v197,0,301,-194,301,-414v0,-206,-101,-379,-300,-378v-213,1,-311,184,-311,411v0,221,116,381,310,381","w":1173,"k":{"\u044f":45,"\u044d":23,"\u044a":68,"\u0447":68,"\u0445":68,"\u0444":23,"\u0443":45,"\u0441":23,"\u043c":45,"\u043b":92,"\u0437":45,"\u0436":23,"\u0435":23,"\u0434":92,"\u0430":47}},"\u0432":{"d":"834,-553v96,31,180,130,174,256v-11,213,-156,297,-393,297r-479,0r0,-1062v203,6,491,-21,642,26v95,29,184,128,182,256v-1,113,-50,181,-126,227xm777,-763v0,-137,-101,-150,-263,-150r-198,0r0,298v158,-9,358,29,427,-61v20,-26,34,-53,34,-87xm553,-148v175,-4,261,-15,270,-158v4,-72,-55,-138,-119,-150v-86,-16,-271,-9,-388,-11r0,319r237,0","w":1088,"k":{"\u044f":23,"\u044a":68,"\u0447":92,"\u0444":23,"\u0443":45,"\u0442":45,"\u0441":23,"\u043e":23,"\u043c":23,"\u043b":47,"\u0437":23,"\u0436":23,"\u0435":23,"\u0434":23,"\u0431":23,"\u0430":23}},"\u0433":{"d":"136,-1062r611,0r0,149r-431,0r0,913r-180,0r0,-1062","w":747,"k":{"\u044f":23,"\u0441":45,"\u043e":45,"\u043b":45,"\u0437":23,"\u0435":45,"\u0434":92,"\u0430":45,".":250,",":250}},"\u0434":{"d":"277,-1062r740,0r0,914r115,0r0,449r-148,0r0,-301r-836,0r0,301r-148,0r0,-449r95,0v127,-172,187,-477,182,-914xm427,-913v-13,345,-67,600,-160,765r571,0r0,-765r-411,0","w":1195,"k":{"\u044d":-23,"\u044a":45}},"\u0435":{"d":"582,-124v156,0,233,-86,280,-218r186,23v-55,208,-211,343,-467,343v-319,1,-506,-215,-506,-546v0,-333,186,-564,496,-564v316,0,506,247,482,601r-792,0v7,209,124,361,321,361xm864,-633v-10,-189,-122,-302,-291,-305v-172,-3,-295,133,-302,305r593,0","k":{"\u0447":68,"\u0445":45,"\u0443":23,"\u0442":68,"\u043b":68,"\u0437":45,"\u0436":23,"\u0434":45,"\u0431":23}},"\u0436":{"d":"777,-1062r0,459v57,0,98,-11,121,-33v23,-22,57,-86,102,-192v42,-101,81,-164,113,-193v41,-37,133,-44,222,-41r0,149v-50,-2,-127,-2,-141,20v-31,27,-100,246,-138,275v-23,27,-58,51,-106,73v78,21,154,93,228,216r198,329r-198,0r-193,-329v-68,-104,-85,-152,-208,-162r0,491r-184,0r0,-491v-122,10,-145,56,-207,162r-193,329r-198,0r197,-329v75,-123,151,-195,229,-216v-144,-73,-131,-99,-208,-288v-34,-82,-71,-83,-177,-80r0,-149v130,2,191,2,248,66v39,44,149,336,188,359v23,23,63,34,121,34r0,-459r184,0","w":1370,"k":{"\u044a":-45,"\u0447":23,"\u0443":-23,"\u0431":-23}},"\u0437":{"d":"474,-121v114,3,212,-74,212,-183v0,-78,-62,-150,-119,-166v-32,-9,-123,-13,-197,-10r0,-141v139,-5,171,7,234,-57v25,-26,37,-60,37,-100v1,-98,-75,-160,-174,-160v-101,0,-172,60,-213,179r-171,-28v53,-199,182,-299,386,-299v206,0,363,130,363,315v0,87,-42,156,-126,207v97,52,160,131,160,267v0,206,-168,321,-395,321v-242,0,-382,-108,-421,-323r169,-36v24,122,121,212,255,214","w":939,"k":{"\u044a":45,"\u0447":68,"\u0444":23,"\u0443":23,"\u0441":23,"\u043e":23,"\u043b":23,"\u0437":23,"\u0435":23,"\u0434":45,"\u0431":23}},"\u0438":{"d":"135,-1062r180,0r0,810r499,-810r194,0r0,1062r-180,0r0,-805r-499,805r-194,0r0,-1062","w":1144},"\u0439":{"d":"582,-1329v110,0,159,-42,178,-135r123,0v-18,160,-121,259,-295,259v-176,0,-278,-97,-296,-259r123,0v18,86,68,135,167,135xm135,-1062r180,0r0,810r499,-810r194,0r0,1062r-180,0r0,-805r-499,805r-194,0r0,-1062","w":1144},"\u043a":{"d":"134,-1062r180,0r0,459v57,0,97,-11,120,-33v38,-21,150,-314,188,-358v56,-64,123,-68,250,-68r0,149v-50,-2,-127,-2,-141,20v-30,28,-101,246,-139,275v-23,27,-58,51,-105,73v77,21,154,92,228,216r197,329r-198,0r-192,-329v-68,-103,-86,-152,-208,-162r0,491r-180,0r0,-1062","w":896,"k":{"\u044d":-23,"\u0443":-23,"\u0442":-23,"\u0441":-23,"\u043e":-23,"\u043b":-23,"\u0437":-23,"\u0435":-23,"\u0431":-45,"\u0430":-45}},"\u043b":{"d":"103,-151v138,-7,120,-38,120,-211r0,-700r836,0r0,1062r-179,0r0,-913r-477,0r0,529v-7,211,17,262,-78,347v-63,57,-184,47,-301,36r0,-150r79,0","w":1195,"k":{"\u0447":45,"\u043e":-23}},"\u043c":{"d":"140,-1062r280,0r279,850r310,-850r259,0r0,1062r-180,0r0,-855r-314,855r-161,0r-297,-896r0,896r-176,0r0,-1062","w":1408,"k":{"\u0443":-23,"\u0437":23,"\u0431":23}},"\u043d":{"d":"136,-1062r180,0r0,442r499,0r0,-442r180,0r0,1062r-180,0r0,-471r-499,0r0,471r-180,0r0,-1062","w":1131},"\u043e":{"d":"566,24v-313,-1,-498,-220,-498,-555v0,-337,186,-552,498,-555v302,-3,497,222,497,540v0,266,-77,412,-241,505v-78,44,-163,65,-256,65xm566,-937v-205,0,-313,167,-313,406v0,240,107,407,313,407v206,0,312,-170,312,-413v0,-232,-111,-400,-312,-400","k":{"\u0447":45,"\u0445":23,"\u0443":23,"\u0442":45,"\u043b":45,"\u0437":23,"\u0436":23,"\u0434":45}},"\u043f":{"d":"136,-1062r838,0r0,1062r-180,0r0,-913r-478,0r0,913r-180,0r0,-1062","w":1109},"\u0440":{"d":"594,24v-126,4,-222,-62,-279,-134r0,517r-180,0r0,-1469r164,0r0,138v72,-98,152,-162,308,-162v301,0,448,240,450,547v2,317,-166,554,-463,563xm590,-945v-184,0,-292,191,-292,420v0,137,28,238,83,303v55,65,122,98,201,98v194,0,291,-177,291,-416v0,-135,-27,-237,-83,-304v-56,-67,-123,-101,-200,-101","k":{"\u044f":23,"\u0447":45,"\u0445":23,"\u0443":23,"\u0442":45,"\u043b":70,"\u0437":23,"\u0434":47}},"\u0441":{"d":"561,-124v161,0,247,-105,267,-265r177,23v-32,227,-196,390,-442,390v-307,0,-483,-221,-483,-551v0,-335,165,-555,484,-559v238,-3,386,130,424,336r-175,27v-28,-126,-104,-215,-242,-215v-210,0,-306,160,-306,406v0,248,88,408,296,408","w":1024,"k":{"\u044d":-23,"\u0447":23,"\u043e":-23,"\u0436":-23}},"\u0442":{"d":"38,-1062r863,0r0,149r-342,0r0,913r-179,0r0,-913r-342,0r0,-149","w":938,"k":{"\u0443":-23,"\u0441":23,"\u043e":23,"\u043b":45,"\u0436":-68,"\u0435":23,"\u0434":68,"\u0430":23,".":227,",":227}},"\u0443":{"d":"127,409r-20,-169v109,34,217,11,258,-60v11,-18,49,-117,71,-178r-403,-1064r194,0r221,615v29,78,54,160,77,246v82,-303,202,-574,301,-861r180,0r-404,1080v-43,117,-79,196,-101,241v-64,132,-198,211,-374,150","w":1024,"k":{"\u044f":23,"\u044d":23,"\u0444":23,"\u0441":23,"\u0440":23,"\u043e":25,"\u043c":23,"\u043b":45,"\u0436":-23,"\u0435":23,"\u0434":68,"\u0431":-23,"\u0430":23,".":205,",":205}},"\u0444":{"d":"492,-1086v122,2,201,51,261,127r0,-507r180,0r0,507v65,-74,145,-126,267,-127v269,-2,410,267,410,554v0,294,-154,556,-415,556v-126,0,-173,-32,-262,-116r0,499r-180,0r0,-499v-63,68,-143,116,-261,116v-111,0,-209,-48,-292,-146v-83,-98,-125,-238,-125,-420v0,-282,149,-546,417,-544xm992,-836v-74,118,-75,538,6,632v99,115,258,99,352,-20v93,-117,96,-492,6,-616v-92,-126,-281,-128,-364,4xm509,-938v-175,0,-251,182,-251,391v0,150,28,256,76,324v89,126,281,133,362,1v75,-123,72,-494,-3,-611v-44,-68,-102,-105,-184,-105","w":1685,"k":{"\u044f":23,"\u0447":45,"\u0443":23,"\u0442":45,"\u043b":45,"\u0434":45,"\u0431":23}},"\u0445":{"d":"15,0r388,-552r-359,-510r225,0r163,249v31,47,55,87,74,119r260,-368r215,0r-367,500r395,562r-221,0r-276,-419r-279,419r-218,0","w":1024,"k":{"\u0447":45,"\u0444":23,"\u0442":23,"\u0441":23,"\u043e":23,"\u0437":23,"\u0435":23,"\u0431":23,"\u0430":23}},"\u0446":{"d":"138,-1062r180,0r0,914r498,0r0,-914r180,0r0,914r116,0r0,449r-148,0r0,-301r-826,0r0,-1062","w":1173,"k":{"\u0441":23,"\u043e":23,"\u0437":23,"\u0435":23}},"\u0447":{"d":"441,-376v-236,0,-372,-162,-372,-408r0,-278r180,0v1,120,-7,309,15,390v22,81,113,145,223,145v68,0,156,-18,264,-54r0,-481r180,0r0,1062r-180,0r0,-428v-111,35,-214,52,-310,52","w":1067},"\u0448":{"d":"141,-1062r180,0r0,913r410,0r0,-913r180,0r0,913r411,0r0,-913r179,0r0,1062r-1360,0r0,-1062","w":1643},"\u0449":{"d":"141,-1062r180,0r0,914r410,0r0,-914r180,0r0,914r411,0r0,-914r179,0r0,914r119,0r0,449r-149,0r0,-301r-1330,0r0,-1062","w":1685,"k":{"\u0443":-23,"\u043e":23,"\u0435":23}},"\u044a":{"d":"1207,-321v0,214,-176,321,-421,321r-451,0r0,-913r-295,0r0,-149r475,0r0,415r229,0v162,0,280,32,353,95v73,63,110,140,110,231xm1020,-321v0,-146,-106,-175,-292,-176r-213,0r0,351v223,-7,505,39,505,-175","w":1280},"\u044b":{"d":"1146,-1062r180,0r0,1062r-180,0r0,-1062xm1011,-322v0,210,-168,322,-422,322r-450,0r0,-1062r180,0r0,415r228,0v261,-3,464,95,464,325xm825,-321v0,-137,-98,-177,-293,-177r-213,0r0,350v222,-6,506,37,506,-173","w":1472},"\u044c":{"d":"1004,-322v0,210,-168,322,-422,322r-450,0r0,-1062r180,0r0,415r228,0v261,-3,464,95,464,325xm818,-321v0,-137,-98,-177,-293,-177r-213,0r0,350v222,-6,506,37,506,-173","w":1067,"k":{"\u0447":137,"\u0442":160}},"\u044d":{"d":"964,-531v0,-325,-171,-555,-481,-555v-234,0,-391,141,-422,338r175,28v29,-145,114,-217,253,-217v175,1,272,150,290,319r-375,0r0,148r375,0v-20,203,-93,346,-291,346v-152,0,-242,-88,-269,-264r-176,23v35,225,195,389,453,389v313,0,468,-237,468,-555","w":1045,"k":{"\u044f":23,"\u0445":23,"\u0442":45,"\u043e":-23,"\u043b":45,"\u0437":23,"\u0435":-23,"\u0434":45}},"\u044e":{"d":"989,24v-282,0,-440,-212,-454,-494r-218,0r0,470r-180,0r0,-1062r180,0r0,444r218,0v26,-276,172,-465,450,-468v224,-2,327,97,407,244v41,75,61,178,61,307v0,338,-155,559,-464,559xm1268,-523v-3,-240,-62,-410,-273,-410v-196,0,-279,169,-279,386v0,146,25,253,74,321v49,68,115,102,198,102v197,0,283,-160,280,-399","w":1536,"k":{"\u0447":45,"\u0445":23,"\u0442":45,"\u043c":23,"\u043b":45,"\u0436":23,"\u0434":45}},"\u044f":{"d":"99,-752v0,-201,157,-310,380,-310r492,0r0,1062r-179,0r0,-414v-85,0,-200,-6,-246,24v-86,55,-215,284,-292,390r-223,0r194,-286v59,-87,118,-137,177,-148v-182,-19,-303,-139,-303,-318xm282,-746v0,159,117,184,311,184r199,0r0,-351r-256,0v-174,-2,-254,39,-254,167","w":1109},"\u0451":{"d":"284,-1270r0,-205r188,0r0,205r-188,0xm657,-1270r0,-205r188,0r0,205r-188,0xm582,-124v156,0,233,-86,280,-218r186,23v-55,208,-211,343,-467,343v-319,1,-506,-215,-506,-546v0,-333,186,-564,496,-564v316,0,506,247,482,601r-792,0v7,209,124,361,321,361xm864,-633v-10,-189,-122,-302,-291,-305v-172,-3,-295,133,-302,305r593,0"},"\u0452":{"d":"820,-673v0,-164,-68,-257,-226,-258v-66,0,-130,23,-190,69v-60,46,-90,140,-90,281r0,581r-179,0r0,-1217r-134,0r-1,-119r135,0r0,-130r179,0r0,130r343,0r0,119r-343,0r0,278v73,-89,172,-147,321,-147v257,0,365,129,365,413r0,731v0,159,-27,259,-76,306v-77,73,-217,81,-332,48r34,-153v35,9,63,14,84,14v105,0,110,-62,110,-219r0,-727"},"\u0453":{"d":"342,-1194r133,-280r236,0r-220,280r-149,0xm136,-1062r611,0r0,149r-431,0r0,913r-180,0r0,-1062","w":747},"\u0454":{"d":"81,-531v0,-325,171,-555,481,-555v234,0,391,141,422,338r-175,28v-29,-145,-114,-217,-253,-217v-175,1,-272,150,-290,319r375,0r0,148r-375,0v20,203,93,346,291,346v152,0,242,-88,269,-264r176,23v-35,225,-195,389,-453,389v-313,0,-468,-237,-468,-555","w":1045},"\u0455":{"d":"945,-312v0,220,-192,335,-428,336v-274,1,-411,-113,-454,-341r178,-28v20,142,111,221,275,221v139,0,244,-58,244,-169v0,-41,-17,-73,-53,-96v-66,-42,-410,-111,-459,-147v-90,-41,-155,-125,-155,-244v0,-211,169,-306,391,-306v237,0,395,83,421,298r-176,24v-17,-113,-97,-174,-232,-174v-133,0,-230,38,-230,137v0,59,40,90,91,111v18,7,71,22,159,46v127,34,217,62,267,84v94,41,161,118,161,248","w":1024},"\u0456":{"d":"136,-1259r0,-207r180,0r0,207r-180,0xm136,0r0,-1062r180,0r0,1062r-180,0","w":455},"\u0457":{"d":"198,0r0,-1062r180,0r0,1062r-180,0xm9,-1270r0,-205r188,0r0,205r-188,0xm382,-1270r0,-205r188,0r0,205r-188,0","w":569},"\u0458":{"d":"134,-1257r0,-209r180,0r0,209r-180,0xm25,273v109,0,109,-67,109,-219r0,-1116r180,0r0,1120v0,131,-20,220,-51,273v-60,101,-221,120,-357,81r34,-153v36,9,64,14,85,14","w":455},"\u0459":{"d":"413,-384v2,265,-18,383,-254,390v-19,0,-66,-2,-140,-6r0,-147v87,11,162,26,194,-29v15,-25,20,-88,20,-186r0,-700r859,0r0,415r229,0v259,-2,463,95,463,325v0,85,-33,160,-98,225v-65,65,-173,97,-324,97r-450,0r0,-913r-499,0r0,529xm1599,-321v0,-138,-97,-177,-293,-177r-214,0r0,350v223,-6,507,38,507,-173","w":1856},"\u045a":{"d":"1593,-309v0,206,-171,309,-422,309r-450,0r0,-471r-410,0r0,471r-180,0r0,-1062r180,0r0,442r410,0r0,-442r180,0r0,442v217,-2,454,-6,571,83v78,59,121,131,121,228xm901,-141v218,-7,506,40,506,-163v0,-44,-20,-80,-53,-116v-57,-61,-306,-50,-453,-51r0,330","w":1664},"\u045b":{"d":"820,-673v0,-164,-68,-257,-226,-258v-66,0,-130,23,-190,69v-60,46,-90,140,-90,281r0,581r-179,0r0,-1217r-134,0r-1,-119r135,0r0,-130r179,0r0,130r343,0r0,119r-343,0r0,278v73,-89,172,-147,321,-147v257,0,365,129,365,413r0,673r-180,0r0,-673"},"\u045c":{"d":"342,-1194r133,-280r236,0r-220,280r-149,0xm134,-1062r180,0r0,459v57,0,97,-11,120,-33v38,-21,150,-314,188,-358v56,-64,123,-68,250,-68r0,149v-50,-2,-127,-2,-141,20v-30,28,-101,246,-139,275v-23,27,-58,51,-105,73v77,21,154,92,228,216r197,329r-198,0r-192,-329v-68,-103,-86,-152,-208,-162r0,491r-180,0r0,-1062","w":896},"\u045e":{"d":"519,-1329v110,0,159,-42,178,-135r123,0v-18,160,-121,259,-295,259v-176,0,-278,-97,-296,-259r123,0v18,86,68,135,167,135xm127,409r-20,-169v109,34,217,11,258,-60v11,-18,49,-117,71,-178r-403,-1064r194,0r221,615v29,78,54,160,77,246v82,-303,202,-574,301,-861r180,0r-404,1080v-43,117,-79,196,-101,241v-64,132,-198,211,-374,150","w":1024,"k":{".":205,",":205}},"\u045f":{"d":"640,0r0,302r-149,0r0,-302r-355,0r0,-1062r180,0r0,914r499,0r0,-914r180,0r0,1062r-355,0","w":1131},"\u0490":{"d":"767,-1466r0,-406r173,0r0,579r-585,0r0,1293r-194,0r0,-1466r606,0","w":1001,"k":{"\u2014":45,";":45,":":45,".":250,",":250}},"\u0491":{"d":"631,-1062r0,-406r149,0r0,555r-464,0r0,913r-180,0r0,-1062r495,0","w":842},"\u03c0":{"d":"505,-916r0,916r-180,0r0,-916r-280,0r0,-146r1324,0r0,146r-242,0r0,916r-180,0r0,-916r-442,0","w":1413,"k":{"\u03ce":29,"\u03c9":29,"\u03c2":29,"\u03bf":29,"\u03b6":29,"\u03ac":29,"\u03c6":29,"\u03c3":29,"\u03b1":29}},"\u0492":{"d":"1109,-1293r-754,0r0,494r401,0r0,132r-401,0r0,667r-194,0r0,-667r-164,0r0,-132r164,0r0,-667r948,0r0,173","w":1109},"\u0493":{"d":"747,-913r-431,0r0,267r231,0r0,132r-231,0r0,514r-180,0r0,-514r-124,0r0,-132r124,0r0,-416r611,0r0,149","w":747},"\u0496":{"d":"1869,-1297v-106,-8,-183,5,-237,69v-39,46,-135,305,-172,352v-42,53,-91,97,-158,126v94,26,187,113,279,262r195,315r107,0r0,580r-172,0r0,-407r-69,0r-244,-398v-62,-101,-108,-167,-139,-198v-60,-60,-131,-90,-214,-90r0,686r-199,0r0,-686v-64,0,-120,17,-169,50v-44,30,-101,102,-171,216r-258,420r-241,0r302,-488v92,-149,185,-236,280,-262v-144,-68,-178,-137,-248,-312v-42,-105,-79,-169,-109,-198v-43,-42,-128,-41,-211,-37r0,-168v7,-1,45,-2,112,-2v123,0,211,49,277,138v45,61,176,387,216,426v49,48,119,78,220,79r0,-642r199,0r0,642v100,0,170,-29,220,-79v40,-40,170,-363,214,-424v65,-91,153,-140,272,-140v63,0,103,1,118,2r0,168","w":1891},"\u0497":{"d":"1360,301r-148,0r0,-301r-34,0r-193,-329v-58,-96,-93,-153,-208,-162r0,491r-184,0r0,-491v-117,8,-149,64,-207,162r-193,329r-198,0r197,-329v74,-123,150,-195,229,-216v-60,-27,-105,-66,-135,-117v-11,-19,-38,-75,-73,-171v-29,-80,-71,-84,-177,-80r0,-149v162,0,212,3,275,104v21,34,119,279,134,289v33,44,82,66,148,66r0,-459r184,0r0,459v67,0,115,-23,148,-65v23,-29,131,-313,168,-333v47,-54,136,-66,242,-61r0,149v-66,-4,-129,0,-155,38v-15,22,-88,223,-114,244v-25,33,-64,62,-116,86v78,21,154,93,228,216r109,181r73,0r0,449","w":1370},"\u049a":{"d":"1172,-1297v-106,-8,-184,5,-238,69v-39,47,-137,309,-172,354v-41,53,-91,97,-158,124v95,26,188,113,280,262r195,315r107,0r0,580r-172,0r0,-407r-69,0r-245,-398v-61,-100,-107,-165,-136,-196v-60,-61,-130,-92,-209,-92r0,686r-194,0r0,-1466r194,0r0,642v96,0,164,-30,214,-82v41,-42,168,-360,212,-421v65,-91,153,-140,273,-140v75,0,114,1,118,2r0,168","w":1193},"\u049b":{"d":"886,301r-148,0r0,-301r-24,0r-192,-329v-57,-96,-93,-153,-208,-162r0,491r-180,0r0,-1062r180,0r0,459v67,0,116,-22,148,-65v14,-8,113,-254,134,-288v61,-98,120,-108,276,-106r0,149v-66,-4,-130,1,-156,38v-15,22,-87,223,-114,244v-25,33,-64,62,-115,86v78,21,154,93,228,216r109,181r62,0r0,449","w":896},"\u049c":{"d":"1172,-1297v-106,-8,-184,5,-238,69v-39,47,-137,309,-172,354v-41,53,-91,97,-158,124v95,26,188,113,280,262r302,488r-241,0r-245,-398v-39,-63,-74,-115,-105,-155r0,314r-120,0r0,-423v-34,-16,-74,-24,-120,-24r0,686r-194,0r0,-1466r194,0r0,642v47,0,87,-5,120,-15r0,-403r120,0r0,294v44,-66,132,-292,166,-347v62,-99,149,-172,293,-172v75,0,114,1,118,2r0,168","w":1193},"\u049d":{"d":"912,0r-198,0r-192,-329v-9,-16,-20,-32,-31,-49r0,214r-99,0r0,-311v-23,-11,-49,-16,-78,-16r0,491r-180,0r0,-1062r180,0r0,459v30,0,56,-3,78,-10r0,-324r99,0r0,209v14,-29,29,-62,45,-100v27,-64,47,-107,60,-128v58,-99,120,-108,276,-106r0,149v-66,-4,-131,0,-156,38v-19,27,-92,238,-124,257v-27,32,-59,56,-95,73v71,19,143,91,218,216","w":896},"\u04a2":{"d":"1448,407r-172,0r0,-407r-156,0r0,-691r-762,0r0,691r-194,0r0,-1466r194,0r0,602r762,0r0,-602r194,0r0,1293r134,0r0,580","w":1479},"\u04a3":{"d":"1111,301r-148,0r0,-301r-148,0r0,-471r-499,0r0,471r-180,0r0,-1062r180,0r0,442r499,0r0,-442r180,0r0,914r116,0r0,449","w":1131},"\u04ae":{"d":"1133,-1466r-476,840r0,626r-180,0r0,-626r-480,-840r200,0r290,516v32,57,57,108,76,154v17,-38,44,-92,82,-163r274,-507r214,0"},"\u04af":{"d":"1005,-1062r-402,1062r0,407r-180,0r0,-407r-403,-1062r194,0r221,615v31,85,56,167,77,246v81,-284,203,-583,299,-861r194,0","w":1024},"\u04b0":{"d":"1133,-1466r-405,711r341,0r0,148r-412,0r0,607r-180,0r0,-607r-415,0r0,-148r341,0r-406,-711r200,0r290,516v32,57,57,108,76,154v17,-38,44,-92,82,-163r274,-507r214,0"},"\u04b1":{"d":"1005,-1062r-402,1062r322,0r0,132r-322,0r0,275r-180,0r0,-275r-323,0r0,-132r323,0r-403,-1062r194,0r221,615v31,85,56,167,77,246v81,-284,203,-583,299,-861r194,0","w":1024},"\u04b2":{"d":"1353,407r-172,0r0,-407r-68,0r-369,-523v-17,-24,-38,-57,-64,-98v-145,232,-287,404,-438,621r-233,0r567,-764r-500,-702r231,0r266,376v56,79,95,139,118,180v118,-183,280,-378,411,-556r211,0r-515,691r430,602r125,0r0,580","w":1366},"\u04b3":{"d":"1009,301r-148,0r0,-301r-73,0r-276,-419r-279,419r-218,0r388,-552r-359,-510r225,0r163,249v28,43,53,82,74,119r260,-368r215,0r-367,500r292,414r103,0r0,449","w":1024},"\u04b8":{"d":"1204,0r-194,0r0,-591v-108,40,-208,68,-300,83r0,279r-120,0r0,-266v-218,14,-407,-95,-463,-252v-63,-175,-33,-480,-40,-719r194,0v8,246,-37,624,89,728v64,52,131,78,220,76r0,-450r120,0r0,441v97,-13,197,-41,300,-82r0,-713r194,0r0,1466","w":1365},"\u04b9":{"d":"931,0r-180,0r0,-428v-73,23,-143,38,-210,46r0,214r-99,0r0,-208v-152,6,-297,-96,-340,-212v-47,-128,-28,-306,-33,-474r180,0r0,201v-1,166,9,222,90,290v28,24,64,36,103,41r0,-277r99,0r0,277v58,-7,128,-24,210,-51r0,-481r180,0r0,1062","w":1067},"\u04ba":{"d":"1084,-413v1,-249,-71,-391,-298,-391v-137,0,-280,30,-431,91r0,713r-194,0r0,-1466r194,0r0,591v174,-65,326,-97,457,-97v198,-1,376,105,427,253v60,174,32,482,39,719r-194,0r0,-413","w":1365},"\u04bb":{"d":"596,-931v-191,0,-281,127,-281,350r0,581r-180,0r0,-1466r180,0r0,526v84,-97,190,-146,318,-146v253,0,367,130,367,413r0,673r-180,0r0,-673v1,-168,-69,-258,-224,-258"},"\u04d8":{"d":"181,-1064v66,-258,275,-427,589,-427v429,0,670,296,679,742v9,446,-222,774,-675,774v-485,0,-699,-355,-675,-868r1141,0v-12,-287,-178,-479,-469,-478v-211,0,-345,102,-400,307xm300,-670v10,304,175,531,474,532v298,0,465,-229,474,-532r-948,0","w":1541},"\u018f":{"d":"181,-1064v66,-258,275,-427,589,-427v429,0,670,296,679,742v9,446,-222,774,-675,774v-485,0,-699,-355,-675,-868r1141,0v-12,-287,-178,-479,-469,-478v-211,0,-345,102,-400,307xm300,-670v10,304,175,531,474,532v298,0,465,-229,474,-532r-948,0","w":1541},"\u04d9":{"d":"558,-1086v323,0,506,216,506,546v0,325,-181,564,-496,564v-322,0,-503,-254,-482,-601r792,0v-9,-203,-121,-361,-321,-361v-135,0,-228,73,-280,218r-186,-23v62,-229,218,-343,467,-343xm275,-429v10,189,122,302,291,305v175,3,294,-134,302,-305r-593,0"},"\u0259":{"d":"558,-1086v323,0,506,216,506,546v0,325,-181,564,-496,564v-322,0,-503,-254,-482,-601r792,0v-9,-203,-121,-361,-321,-361v-135,0,-228,73,-280,218r-186,-23v62,-229,218,-343,467,-343xm275,-429v10,189,122,302,291,305v175,3,294,-134,302,-305r-593,0"},"\u04e8":{"d":"798,-1492v425,0,700,327,700,761v0,430,-280,761,-701,756v-429,-5,-694,-320,-701,-739v-7,-449,265,-778,702,-778xm1294,-819v-18,-291,-209,-506,-495,-506v-289,0,-481,196,-498,506r993,0xm298,-647v17,281,208,506,498,506v294,0,478,-220,498,-506r-996,0","w":1593},"\u04e9":{"d":"566,-1086v308,-4,497,226,497,540v0,350,-170,562,-497,570v-318,7,-498,-226,-498,-555v0,-337,186,-550,498,-555xm872,-633v-18,-175,-136,-304,-306,-304v-171,0,-290,129,-307,304r613,0xm254,-485v7,201,116,361,312,361v196,0,302,-161,311,-361r-623,0"},"\u0374":{"d":"591,-1474r-220,280r-149,0r133,-280r236,0","w":682},"\u0375":{"d":"465,127r-135,280r-241,0r231,-280r145,0","w":682},"\u037a":{"d":"430,407r-180,0r40,-280r100,0","w":682},"\u03d0":{"d":"611,-846v267,0,448,174,448,435v0,259,-195,435,-461,435v-324,0,-486,-252,-486,-757v0,-505,166,-758,499,-758v168,0,335,113,335,271v0,157,-156,241,-325,241v-103,0,-202,-25,-298,-75v-21,84,-28,206,-24,316v78,-72,182,-108,312,-108xm779,-1230v0,-70,-91,-113,-170,-113v-103,0,-182,48,-236,143v83,45,165,68,246,68v107,0,160,-33,160,-98xm611,-125v169,0,263,-114,263,-286v0,-172,-94,-286,-263,-286v-169,0,-263,114,-263,286v0,172,94,286,263,286","w":1178},"\u03d1":{"d":"244,-1151v0,-207,164,-340,379,-340v129,0,230,51,303,151v73,100,110,245,110,435r84,0r0,155r-84,0v-17,249,-78,440,-180,574v-102,134,-220,201,-354,201v-190,0,-321,-101,-320,-285v-7,-26,50,-227,50,-268v0,-30,-19,-45,-58,-45v-22,0,-66,17,-133,51r-41,-144v78,-42,145,-63,201,-63v129,-2,213,69,215,192v1,33,-55,249,-49,277v-1,79,55,129,135,129v84,0,160,-51,229,-155v69,-104,110,-259,125,-464v-188,0,-337,-36,-447,-108v-110,-72,-165,-170,-165,-293xm623,-1343v-115,-2,-195,76,-195,190v0,76,38,136,114,181v76,45,180,67,314,67v0,-138,-22,-246,-66,-323v-44,-77,-100,-115,-167,-115","w":1120},"\u03d2":{"d":"1566,-1366r-89,132v-71,-48,-126,-72,-167,-72v-73,0,-85,44,-130,112r-381,573r0,621r-194,0r0,-621r-585,-845r226,0r294,431v59,89,112,176,160,259v95,-172,213,-346,319,-512v46,-71,84,-121,114,-149v40,-37,85,-55,133,-55v87,0,187,42,300,126","w":1582},"\u03d3":{"d":"1946,-1366r-89,132v-71,-48,-126,-72,-167,-72v-73,0,-85,44,-130,112r-381,573r0,621r-194,0r0,-621r-585,-845r226,0r294,431v59,89,112,176,160,259v95,-172,213,-346,319,-512v46,-71,84,-121,114,-149v40,-37,85,-55,133,-55v87,0,187,42,300,126xm369,-1474r-220,280r-149,0r133,-280r236,0","w":1962},"\u03d4":{"d":"421,-1632r0,-205r188,0r0,205r-188,0xm794,-1632r0,-205r188,0r0,205r-188,0xm1566,-1366r-89,132v-71,-48,-126,-72,-167,-72v-73,0,-85,44,-130,112r-381,573r0,621r-194,0r0,-621r-585,-845r226,0r294,431v59,89,112,176,160,259v95,-172,213,-346,319,-512v46,-71,84,-121,114,-149v40,-37,85,-55,133,-55v87,0,187,42,300,126","w":1582},"\u03d5":{"d":"664,-1080v249,33,407,247,407,534v0,308,-144,529,-407,564r0,389r-180,0r0,-390v-260,-35,-408,-248,-408,-548v0,-300,149,-512,408,-548r0,-387r180,0r0,386xm664,-135v147,-40,222,-205,222,-402v0,-190,-80,-350,-222,-389r0,791xm484,-924v-148,40,-223,198,-223,393v0,195,75,353,223,394r0,-787","w":1147},"\u03d6":{"d":"476,24v-264,0,-389,-252,-389,-541v0,-130,29,-263,86,-399r-86,0r0,-146r1425,0r0,146r-86,0v57,136,86,269,86,399v0,292,-123,543,-389,541v-151,0,-258,-80,-323,-239v-65,159,-173,239,-324,239xm1103,-117v154,0,226,-210,226,-389v0,-116,-29,-253,-88,-410r-883,0v-59,156,-88,293,-88,410v0,180,71,389,227,389v93,0,176,-90,195,-171v29,-122,14,-347,18,-506r179,0r0,311v0,156,31,261,94,316v38,33,78,50,120,50","w":1599},"\u03d7":{"d":"209,-1086v211,0,269,124,267,373r0,210r454,-559r233,0r-228,281r0,426v0,71,3,119,10,143v28,97,116,87,218,57r0,213v2,250,-55,373,-267,373v-49,0,-96,-6,-141,-19r34,-153v36,9,64,14,85,14v112,-4,111,-109,109,-251v-182,-27,-228,-135,-228,-371r0,-210r-454,559r-233,0r228,-281r0,-426v0,-71,-3,-119,-10,-143v-24,-84,-93,-91,-184,-64r-34,-153v45,-13,92,-19,141,-19","w":1231},"\u03d8":{"d":"801,-1492v441,9,700,308,700,761v0,423,-232,697,-604,750r0,388r-194,0r0,-388v-368,-51,-596,-329,-604,-733v-9,-450,263,-787,702,-778xm799,-141v322,0,502,-255,502,-591v0,-247,-79,-420,-237,-520v-77,-49,-165,-73,-262,-73v-340,-1,-503,255,-503,614v0,318,192,570,500,570","w":1593},"\u03d9":{"d":"566,-1086v308,-4,497,226,497,540v0,321,-140,514,-407,563r0,390r-180,0r0,-389v-260,-35,-408,-250,-408,-549v0,-337,186,-550,498,-555xm566,-124v212,0,312,-184,312,-413v0,-221,-105,-400,-312,-400v-210,0,-313,179,-313,406v0,225,102,407,313,407"},"\u03da":{"d":"112,-878v0,-387,270,-614,665,-614v277,0,497,156,578,361r-167,54v-52,-143,-223,-267,-411,-267v-281,0,-480,183,-480,461v0,293,245,490,563,435r0,448r-180,0r0,-294v-334,-16,-568,-237,-568,-584","w":1479},"\u03db":{"d":"80,-527v0,-347,164,-559,484,-559v239,0,381,112,424,336r-175,27v-33,-143,-114,-215,-242,-215v-204,0,-306,135,-306,406v0,234,116,310,336,346v204,34,331,95,331,290v0,218,-139,327,-417,327v-101,0,-205,-11,-311,-34r0,-181v115,45,221,67,318,67v145,0,218,-51,218,-153v0,-123,-64,-135,-205,-155v-303,-45,-455,-212,-455,-502","w":1024},"\u03dc":{"d":"1157,-1293r-795,0r0,454r688,0r0,389r-194,0r0,-216r-494,0r0,666r-194,0r0,-1466r989,0r0,173","w":1251},"\u03dd":{"d":"747,-913r-431,0r0,279r381,0r0,334r-180,0r0,-185r-201,0r0,892r-180,0r0,-1469r611,0r0,149","w":827},"\u03de":{"d":"23,-1487v255,-29,433,83,397,338r-68,485r763,-495r23,2r-118,842v-18,109,23,182,130,182v39,0,82,-4,129,-13r-21,157v-255,30,-432,-83,-397,-338r65,-474r-762,493r-24,-3r120,-851v18,-108,-23,-180,-130,-180v-38,0,-81,4,-130,12","w":1279},"\u03df":{"d":"1034,-773r-276,773r-194,0r232,-646r-746,0r0,-49r276,-771r194,0r-232,644r746,0r0,49","w":1084},"\u03e0":{"d":"10,-1155v133,-171,332,-337,593,-337v151,0,297,69,443,200v217,195,426,600,426,979v0,558,-219,718,-802,720r-85,-176v96,8,182,12,258,12v293,0,440,-168,440,-505v0,-138,-31,-300,-93,-486v-188,6,-251,79,-251,275r0,473r-182,0r0,-476v0,-256,116,-402,347,-437v-172,-280,-349,-423,-531,-430r0,573r-178,0r0,-521v-102,56,-202,151,-300,284","w":1549},"\u03e1":{"d":"1129,-106v0,141,-19,286,-57,437r-211,100v94,-302,110,-598,39,-874r-356,173r-70,-143r382,-187v-30,-79,-69,-157,-116,-232r-380,185r-71,-144r368,-181v-129,-162,-326,-302,-591,-420r205,-100v572,273,858,735,858,1386","w":1181},"\u03e2":{"d":"560,-142v176,0,260,-128,260,-313r0,-1011r194,0r0,1084v0,160,63,240,188,240v175,0,263,-126,263,-379r0,-945r194,0r0,1323v-1,389,-111,550,-479,550r-1016,0r0,-173r1006,0v250,-7,307,-104,307,-373v-63,109,-168,163,-315,163v-165,0,-270,-62,-314,-186v-84,124,-193,186,-328,186v-225,0,-356,-135,-356,-357r0,-1133r193,0r0,1063v0,174,68,261,203,261","w":1824},"\u03e3":{"d":"1128,-132v196,0,263,-148,263,-379r0,-551r180,0r0,919v0,378,-119,550,-479,550r-960,0r0,-155r969,0v242,-5,310,-136,309,-401v-74,115,-181,173,-322,173v-156,0,-256,-62,-300,-186v-84,124,-193,186,-328,186v-219,0,-328,-119,-328,-357r0,-729r179,0r0,669v3,174,44,258,189,261v174,4,260,-128,260,-313r0,-617r180,0r0,690v0,160,63,240,188,240","w":1706},"\u03e4":{"d":"293,-998v-1,204,116,336,318,336v123,0,260,-30,411,-91r0,-713r194,0r0,1466r-194,0r0,-591v-174,65,-320,97,-437,97v-292,0,-485,-200,-486,-487v-1,-315,181,-513,493,-511v79,0,152,16,221,48r-82,133v-50,-22,-94,-33,-132,-33v-204,0,-306,115,-306,346","w":1381},"\u03e5":{"d":"319,-820v-2,183,53,284,223,284v187,0,280,-117,280,-350r0,-580r180,0r0,1466r-180,0r0,-535v-73,141,-348,204,-520,109v-133,-74,-163,-176,-163,-387r0,-306v-1,-242,53,-373,267,-373v49,0,96,6,141,19r-34,153v-90,-27,-165,-21,-184,63v-22,98,-9,309,-10,437"},"\u03e6":{"d":"755,-972v358,-2,526,268,526,647v0,445,-215,732,-639,732r-478,0r0,-173r466,0v303,-2,457,-220,457,-542v0,-331,-119,-496,-358,-496v-104,0,-228,30,-371,91r0,713r-194,0r0,-1466r194,0r0,591v144,-65,276,-97,397,-97","w":1380},"\u03e7":{"d":"110,-803v1,-195,164,-283,375,-283v108,0,201,25,279,75r103,-155r121,104r-110,158v73,98,110,221,110,369v0,316,-173,561,-473,559v-51,0,-108,-17,-171,-50v-63,-33,-102,-49,-117,-49v-43,0,-65,25,-65,75r-152,0v-2,-129,81,-223,207,-223v67,0,235,99,300,99v269,0,345,-394,243,-633v-126,139,-250,208,-373,208v-185,0,-277,-85,-277,-254xm666,-882v-106,-92,-393,-75,-393,79v0,67,37,101,111,101v85,0,179,-60,282,-180","w":1024},"\u03e8":{"d":"668,-149v208,0,415,-96,413,-285v0,-64,-13,-125,-40,-183r173,-54v36,69,54,150,54,245v2,292,-291,451,-609,451v-308,0,-553,-151,-552,-439v0,-162,83,-281,250,-358v39,-18,149,-49,330,-93v157,-39,252,-74,287,-105v38,-34,57,-77,57,-130v1,-155,-160,-222,-337,-220v-231,3,-330,100,-357,311r-186,0v10,-299,237,-482,551,-482v217,0,369,64,453,196v125,196,57,419,-145,527v-92,49,-459,129,-544,163v-114,46,-172,113,-172,207v0,165,191,249,374,249","w":1366},"\u03e9":{"d":"151,-1029v10,-300,237,-462,551,-462v217,0,369,64,453,196v125,196,57,419,-145,527v-92,49,-459,129,-544,163v-114,46,-172,113,-172,207v0,97,50,168,150,214v79,37,163,55,254,55v189,0,352,-21,490,-64r54,163v-141,37,-319,55,-534,55v-401,0,-601,-146,-601,-439v0,-155,83,-271,250,-348v39,-18,149,-49,330,-93v157,-39,252,-74,287,-105v38,-34,57,-87,57,-160v1,-155,-160,-222,-337,-220v-231,3,-330,100,-357,311r-186,0","w":1366},"\u03ea":{"d":"280,-1325v-86,0,-109,59,-176,135r-99,-114v80,-125,173,-188,280,-188v131,0,217,54,258,162r82,215r80,-215v40,-108,126,-162,258,-162v107,0,200,63,280,188r-99,114v-44,-47,-100,-135,-176,-135v-43,0,-74,21,-92,62r-157,362r306,728r0,173r-802,0r0,-173r306,-728r-157,-362v-18,-41,-49,-62,-92,-62xm839,-173r-214,-509r-216,509r430,0","w":1248},"\u03eb":{"d":"1196,-898r-99,114v-19,-29,-41,-66,-75,-103v-67,-73,-149,-71,-193,30r-135,310r174,410r0,137r-516,0r0,-137r172,-410r-132,-310v-40,-102,-123,-100,-193,-30v-11,11,-36,46,-75,103r-99,-114v80,-125,173,-188,280,-188v127,0,209,54,248,162r55,153r60,-153v43,-108,125,-162,248,-162v107,0,200,63,280,188xm690,-155r-82,-183r-77,183r159,0","w":1221},"\u03ec":{"d":"753,-1176v375,0,661,236,661,602v0,366,-286,599,-661,599v-439,0,-658,-253,-658,-758v0,-412,275,-733,680,-733r509,0r0,173r-511,0v-196,0,-353,92,-411,233v116,-77,246,-116,391,-116xm753,-141v263,0,461,-170,461,-433v0,-260,-196,-431,-461,-431v-267,0,-458,168,-458,431v0,262,193,433,458,433","w":1509},"\u03ed":{"d":"881,-378v0,-238,-272,-228,-505,-184r0,-159v43,-7,120,-20,232,-26v299,-16,458,88,458,369v0,268,-167,402,-502,402v-331,0,-496,-191,-496,-574v0,-336,222,-513,667,-531v82,-3,169,-5,260,-5r0,163v-55,0,-141,0,-256,5v-315,13,-486,97,-486,393v0,267,106,401,318,401v207,0,310,-85,310,-254","w":1134},"\u03ee":{"d":"337,-977v-150,-14,-180,69,-145,194r-153,41v-13,-45,-19,-92,-19,-141v-4,-191,129,-277,358,-267r0,-316r194,0r0,316v228,-9,358,76,358,267v0,49,-6,96,-19,141r-153,-41v9,-36,14,-64,14,-85v2,-106,-81,-113,-200,-109r0,977r-194,0r0,-977r-41,0","w":950},"\u03ef":{"d":"799,-922r-286,0r0,922r-281,-100r0,-40r101,0r0,-782r-155,0r-100,148r-38,0r0,-288r293,0r0,-404r281,100r0,40r-101,0r0,264r286,0r0,140","w":839},"\u03f0":{"d":"209,-1086v211,0,269,124,267,373r0,210r454,-559r233,0r-228,281r0,426v0,71,3,119,10,143v24,84,93,91,184,64r34,153v-45,13,-92,19,-141,19v-211,0,-269,-124,-267,-373r0,-210r-454,559r-233,0r228,-281r0,-426v0,-71,-3,-119,-10,-143v-24,-84,-93,-91,-184,-64r-34,-153v45,-13,92,-19,141,-19","w":1231},"\u03f1":{"d":"1092,-532v0,302,-189,532,-483,532v-152,0,-273,-67,-364,-202v6,200,54,350,213,394v43,27,348,17,416,25v141,17,183,62,198,214r-159,0v-7,-22,-25,-37,-53,-37v-55,0,-117,3,-188,3v-197,0,-343,-49,-438,-147v-95,-98,-143,-283,-143,-558v0,-168,10,-293,29,-376v31,-133,96,-235,188,-316v114,-100,404,-115,543,-26v129,83,241,257,241,494xm604,-149v197,0,300,-169,300,-378v0,-217,-102,-414,-301,-414v-198,0,-310,171,-310,381v0,229,100,411,311,411","w":1173},"\u03f2":{"d":"561,-124v161,0,247,-105,267,-265r177,23v-32,227,-196,390,-442,390v-307,0,-483,-221,-483,-551v0,-335,165,-555,484,-559v238,-3,386,130,424,336r-175,27v-28,-126,-104,-215,-242,-215v-210,0,-306,160,-306,406v0,248,88,408,296,408","w":1024},"\u03f3":{"d":"134,-1257r0,-209r180,0r0,209r-180,0xm25,273v109,0,109,-67,109,-219r0,-1116r180,0r0,1120v0,131,-20,220,-51,273v-60,101,-221,120,-357,81r34,-153v36,9,64,14,85,14","w":455},"\u03f4":{"d":"798,-1492v426,0,700,325,700,761v0,432,-278,761,-701,756v-429,-5,-694,-319,-701,-739v-7,-452,263,-778,702,-778xm1294,-819v-18,-291,-209,-506,-495,-506v-289,0,-481,196,-498,506r993,0xm298,-647v17,279,208,506,498,506v294,0,479,-220,498,-506r-996,0","w":1593},"\u03f5":{"d":"546,0v-319,1,-470,-202,-466,-531v4,-323,167,-532,483,-531r262,0r0,155r-270,0v-174,0,-273,122,-290,289r375,0r0,148r-375,0v21,210,118,315,291,315r269,0r0,155r-279,0","w":905},"\u03f6":{"d":"640,-618v-17,-167,-116,-289,-290,-289r-270,0r0,-155r262,0v316,-1,480,209,483,531v4,330,-147,531,-466,531r-279,0r0,-155r269,0v173,0,270,-105,291,-315r-375,0r0,-148r375,0","w":905},"\u0400":{"d":"162,0r0,-1466r1060,0r0,173r-866,0r0,449r811,0r0,172r-811,0r0,499r900,0r0,173r-1094,0xm850,-1556r-145,0r-231,-280r241,0","w":1366},"\u040d":{"d":"161,-1466r176,0r0,1161r780,-1161r195,0r0,1466r-176,0r0,-1158r-781,1158r-194,0r0,-1466xm824,-1556r-145,0r-231,-280r241,0","w":1472},"\u0450":{"d":"582,-124v156,0,233,-86,280,-218r186,23v-55,208,-211,343,-467,343v-319,1,-506,-215,-506,-546v0,-333,186,-564,496,-564v316,0,506,247,482,601r-792,0v7,209,124,361,321,361xm864,-633v-10,-189,-122,-302,-291,-305v-172,-3,-295,133,-302,305r593,0xm686,-1194r-145,0r-231,-280r241,0"},"\u045d":{"d":"135,-1062r180,0r0,810r499,-810r194,0r0,1062r-180,0r0,-805r-499,805r-194,0r0,-1062xm675,-1194r-145,0r-231,-280r241,0","w":1144},"\u0460":{"d":"1897,-1491v453,0,734,310,734,765v0,449,-300,751,-749,751v-178,0,-349,-53,-512,-160v-163,107,-334,160,-512,160v-449,0,-749,-303,-749,-751v0,-455,281,-765,734,-765v185,0,329,46,432,139r-123,127v-79,-67,-181,-100,-308,-100v-345,0,-535,235,-535,587v0,354,193,590,538,588v158,0,342,-72,428,-152r0,-445r190,0r0,445v87,80,269,152,428,152v345,2,538,-234,538,-588v0,-353,-190,-587,-535,-587v-127,0,-229,33,-308,100r-123,-127v103,-93,247,-139,432,-139","w":2740},"\u0461":{"d":"1262,-1062r-332,1062r-189,0r-135,-357r-116,357r-189,0r-227,-599v-27,-70,-46,-224,-58,-463r186,0v5,143,22,385,46,449r148,394r116,-386v-25,-73,-44,-226,-56,-457r186,0v5,143,22,385,46,449r148,394r251,-843r175,0","w":1278},"\u0462":{"d":"1519,-426v0,284,-183,426,-548,426r-557,0r0,-1073r-394,0r0,-173r394,0r0,-220r194,0r0,220r394,0r0,173r-394,0r0,233v210,4,490,-12,642,33v166,49,269,189,269,381xm963,-165v221,0,347,-61,347,-261v0,-126,-58,-202,-174,-229v-103,-25,-371,-17,-528,-18r0,508r355,0","w":1593},"\u0463":{"d":"728,-647v255,-3,463,95,464,325v1,218,-186,322,-422,322r-450,0r0,-930r-300,0r0,-132r300,0r0,-404r180,0r0,404r300,0r0,132r-300,0r0,283r228,0xm1006,-321v0,-118,-98,-177,-293,-177r-213,0r0,350r189,0v211,0,317,-58,317,-173","w":1255},"\u0464":{"d":"785,-670v8,293,175,532,460,532v233,0,380,-124,439,-372r187,49v-85,324,-289,486,-612,486v-231,0,-403,-75,-516,-224v-97,-129,-150,-286,-158,-471r-200,0r0,670r-194,0r0,-1466r194,0r0,623r205,0v26,-257,139,-440,314,-551v206,-131,541,-128,733,10v105,75,178,181,215,320r-190,50v-55,-205,-189,-307,-400,-307v-289,-1,-457,193,-469,478r537,0r0,173r-545,0","w":1945},"\u0465":{"d":"502,-618v24,-276,189,-468,476,-468v231,0,393,135,422,338r-175,28v-29,-145,-114,-217,-253,-217v-172,0,-273,149,-290,319r375,0r0,148r-375,0v23,231,120,346,291,346v152,0,242,-88,269,-264r176,23v-38,229,-188,381,-453,389v-299,10,-455,-205,-467,-494r-182,0r0,470r-180,0r0,-1062r180,0r0,444r186,0","w":1461},"\u0466":{"d":"1362,0r-211,0r-208,-576r-172,0r0,576r-180,0r0,-576r-177,0r-215,576r-198,0r583,-1466r200,0xm890,-729r-207,-576r-214,576r421,0","w":1368},"\u0467":{"d":"1020,0r-185,0r-136,-356r-97,0r0,356r-180,0r0,-356r-93,0r-133,356r-190,0r424,-1062r168,0xm653,-484r-141,-366r-137,366r278,0","w":1024},"\u0468":{"d":"1832,0r-211,0r-208,-576r-172,0r0,576r-180,0r0,-576r-177,0r-215,576r-198,0r229,-576r-315,0r0,576r-194,0r0,-1466r194,0r0,737r376,0r293,-737r200,0xm1360,-729r-207,-576r-214,576r421,0","w":1838},"\u0469":{"d":"1420,0r-185,0r-136,-356r-97,0r0,356r-180,0r0,-356r-93,0r-133,356r-190,0r142,-356r-232,0r0,356r-180,0r0,-1062r180,0r0,578r283,0r231,-578r168,0xm1053,-484r-141,-366r-137,366r278,0","w":1424},"\u046a":{"d":"120,-205v4,-345,185,-546,524,-576r-458,-685r1344,0r-475,686v348,38,522,235,522,592r0,188r-195,0r0,-145v2,-333,-142,-452,-437,-476r0,621r-194,0r0,-621v-307,27,-433,132,-437,452r0,169r-194,0r0,-205xm1193,-1293r-661,0r328,517","w":1697},"\u046b":{"d":"883,-555v327,20,407,195,398,555r-179,0v4,-140,-13,-289,-64,-338v-45,-44,-124,-69,-245,-69r0,407r-183,0r0,-407v-254,5,-304,76,-309,337r0,70r-179,0r0,-70v3,-331,97,-459,399,-485r-305,-507r974,0xm921,-916r-433,0r214,374","w":1403},"\u046c":{"d":"1211,-621v-307,27,-433,132,-437,452r0,169r-194,0r0,-205v0,-175,48,-314,145,-416r-340,0r0,621r-194,0r0,-1466r194,0r0,672r710,0r-449,-672r1344,0r-475,686v348,38,522,235,522,592r0,188r-195,0r0,-145v2,-333,-142,-452,-437,-476r0,621r-194,0r0,-621xm1653,-1293r-661,0r328,517","w":2157},"\u046d":{"d":"1256,-555v327,20,407,195,398,555r-179,0v4,-140,-13,-289,-64,-338v-45,-44,-124,-69,-245,-69r0,407r-183,0r0,-407v-254,5,-304,76,-309,337r0,70r-179,0v-4,-168,15,-329,73,-407r-252,0r0,407r-180,0r0,-1062r180,0r0,507r578,0r-305,-507r974,0xm1294,-916r-433,0r214,374","w":1776},"\u046e":{"d":"891,-774v150,37,263,177,263,355v0,296,-202,444,-606,444v-113,0,-260,36,-260,126v0,76,58,114,175,114v69,0,323,-96,390,-96v125,0,210,108,207,238r-152,0v0,-50,-22,-75,-65,-75v-13,0,-67,17,-160,50v-93,33,-167,49,-220,49v-207,2,-361,-87,-361,-280v0,-208,208,-292,446,-292v268,0,402,-90,402,-270v0,-177,-159,-267,-350,-264r-93,0r0,-169v181,0,243,-7,327,-89v41,-40,58,-91,58,-150v0,-144,-126,-238,-276,-238v-154,0,-253,67,-298,202v-20,61,-30,106,-30,137r-186,-42v39,-261,166,-413,382,-455r-159,-347r145,0r148,335r115,-230v59,-139,225,-163,288,-25r-84,45v-29,-58,-56,-30,-85,29r-97,196v175,38,330,189,330,384v0,137,-65,243,-194,318","w":1237},"\u046f":{"d":"362,282v61,0,273,-113,330,-113v125,0,210,108,207,238r-152,0v0,-50,-22,-75,-65,-75v-7,0,-50,17,-128,50v-78,33,-143,49,-192,49v-194,2,-331,-87,-331,-271v0,-195,187,-284,403,-281v130,2,252,-62,252,-183v0,-74,-57,-150,-119,-166v-29,-7,-123,-13,-197,-10r0,-141v70,-1,112,-2,125,-4v97,-15,146,-66,146,-153v0,-103,-72,-161,-174,-160v-101,0,-172,60,-213,179r-171,-28v41,-152,125,-246,254,-282r-161,-352r145,0r148,335r115,-230v59,-139,225,-163,288,-25r-84,45v-29,-58,-56,-29,-85,29r-98,200v126,37,227,149,227,296v0,87,-42,156,-126,207v107,57,160,146,160,267v0,215,-193,324,-425,321v-112,-2,-226,40,-225,136v0,81,49,122,146,122","w":939},"\u0470":{"d":"882,-619v306,-21,437,-154,437,-476r0,-371r195,0r0,414v0,393,-211,592,-632,599r0,453r-194,0r0,-453v-197,1,-334,-128,-388,-288r-243,-725r194,0r243,689v37,105,102,158,194,158r0,-847r194,0r0,847","w":1631},"\u0471":{"d":"770,-127v264,-24,338,-124,338,-411r0,-524r179,0r0,518v1,280,-34,374,-194,485v-77,53,-186,78,-323,83r0,383r-180,0r0,-383v-170,0,-278,-93,-323,-280r-195,-806r179,0r185,777v25,105,77,158,154,158r0,-935r180,0r0,935","w":1410},"\u0472":{"d":"798,-1492v426,0,700,325,700,761v0,432,-278,761,-701,756v-429,-5,-694,-319,-701,-739v-7,-452,263,-778,702,-778xm572,-889v101,0,397,140,506,140v82,0,154,-23,216,-70v-18,-291,-209,-506,-495,-506v-289,0,-481,196,-498,506v85,-47,176,-70,271,-70xm298,-648v17,282,207,507,498,507v294,0,479,-220,498,-506v-61,46,-133,69,-216,69v-110,0,-405,-140,-506,-140v-97,0,-189,23,-274,70","w":1593},"\u0473":{"d":"566,-1086v308,-4,497,224,497,540v0,350,-170,562,-497,570v-320,7,-498,-225,-498,-555v0,-337,186,-551,498,-555xm411,-683v61,0,239,100,301,100v63,0,117,-17,160,-50v-18,-174,-136,-304,-306,-304v-171,0,-290,130,-307,304v53,-33,104,-50,152,-50xm254,-485v8,202,115,361,312,361v196,0,302,-161,311,-361v-43,33,-98,49,-165,49v-62,0,-240,-100,-301,-100v-51,0,-103,17,-157,51"},"\u0474":{"d":"1629,-1366r-89,132v-71,-48,-126,-72,-167,-72v-57,0,-101,37,-130,112r-467,1194r-199,0r-568,-1466r210,0r381,1065v31,87,57,167,77,240v21,-76,48,-156,79,-240r329,-887v51,-136,132,-204,244,-204v81,0,181,42,300,126","w":1645},"\u0475":{"d":"1276,-974r-84,135v-148,-78,-231,-119,-295,49r-299,790r-168,0r-404,-1062r190,0r228,636v25,69,47,141,68,214v16,-55,38,-123,67,-202r165,-454v49,-132,99,-218,250,-218v73,0,167,37,282,112","w":1292},"\u0476":{"d":"964,-1554r-144,0r-211,-280r234,0xm617,-1554r-151,0r-207,-280r231,0xm1629,-1366r-89,132v-71,-48,-126,-72,-167,-72v-57,0,-101,37,-130,112r-467,1194r-199,0r-568,-1466r210,0r381,1065v31,87,57,167,77,240v21,-76,48,-156,79,-240r329,-887v51,-136,132,-204,244,-204v81,0,181,42,300,126","w":1645},"\u0477":{"d":"803,-1194r-144,0r-211,-280r234,0xm456,-1194r-151,0r-207,-280r231,0xm1276,-974r-84,135v-148,-78,-231,-119,-295,49r-299,790r-168,0r-404,-1062r190,0r228,636v25,69,47,141,68,214v16,-55,38,-123,67,-202r165,-454v49,-132,99,-218,250,-218v73,0,167,37,282,112","w":1292},"\u0478":{"d":"2182,-1062r-404,1080v-44,117,-78,198,-101,241v-83,150,-202,208,-374,150r-20,-169v108,32,210,18,258,-60v11,-19,35,-78,71,-178r-403,-1064r194,0r298,861r301,-861r180,0xm639,24v-391,0,-540,-323,-540,-756v0,-235,42,-417,126,-547v92,-142,231,-213,414,-213v183,0,317,74,414,213v163,235,164,858,0,1092v-96,138,-230,211,-414,211xm912,-311v86,-163,85,-681,0,-844v-58,-111,-145,-170,-273,-170v-128,0,-215,59,-273,170v-85,163,-86,682,0,844v58,110,145,168,273,168v128,0,215,-58,273,-168","w":2200},"\u0479":{"d":"1818,-1062r-404,1080v-44,117,-78,198,-101,241v-83,150,-202,208,-374,150r-20,-169v108,32,210,18,258,-60v11,-19,35,-78,71,-178r-403,-1064r194,0r298,861r301,-861r180,0xm446,-1086v260,0,379,262,379,555v0,164,-32,297,-97,397v-68,106,-163,158,-282,158v-260,0,-378,-261,-378,-555v0,-165,32,-297,97,-397v68,-105,162,-158,281,-158xm597,-256v52,-137,52,-413,0,-550v-65,-173,-238,-173,-302,0v-51,137,-51,413,0,550v64,173,237,173,302,0","w":1836},"\u047a":{"d":"1500,-1239v226,253,226,760,0,1012v-121,136,-279,219,-482,240v-32,72,-88,108,-167,108v-78,0,-133,-36,-165,-108v-386,-34,-654,-328,-654,-746v0,-418,268,-712,654,-746v32,-72,87,-108,165,-108v79,0,135,36,167,108v203,21,361,104,482,240xm1008,-156v280,-22,464,-265,464,-577v0,-312,-184,-555,-464,-577v-58,118,-254,119,-312,0v-280,22,-464,266,-464,577v0,311,183,554,464,577v59,-119,254,-118,312,0","w":1706},"\u047b":{"d":"1110,-887v154,188,154,524,0,711v-83,101,-189,164,-326,184v-28,71,-80,107,-156,107v-77,0,-129,-36,-157,-107v-257,-32,-443,-252,-443,-539v0,-286,186,-508,443,-540v28,-71,80,-107,157,-107v76,0,128,36,156,107v137,20,243,83,326,184xm769,-147v169,-37,273,-178,273,-384v0,-205,-104,-349,-273,-385v-59,102,-224,101,-283,0v-169,36,-273,179,-273,385v0,206,104,348,273,384v59,-101,224,-102,283,0","w":1254},"\u047c":{"d":"828,-1660v36,-192,187,-346,405,-344v89,0,203,34,341,104v138,70,256,105,355,105r0,135v-98,0,-191,-17,-277,-56v-125,-57,-267,-159,-432,-159v-134,0,-219,72,-254,215r-138,0xm1307,-1800v0,86,4,186,-31,232v-22,29,-58,55,-111,77r-35,-67v63,-28,82,-31,87,-102r-77,0r0,-140r167,0xm1616,-1491v451,-3,714,304,714,765v0,457,-250,751,-699,751v-156,0,-293,-33,-412,-100v-118,67,-255,100,-411,100v-448,0,-699,-295,-699,-751v0,-461,263,-768,714,-765v112,0,216,28,312,85r-101,142v-62,-41,-132,-61,-210,-61v-345,-1,-515,230,-515,587v0,392,163,588,488,588v157,0,297,-47,422,-142v125,95,266,142,423,142v325,0,488,-196,488,-588v0,-358,-170,-588,-515,-587v-78,0,-148,20,-210,61r-101,-142v96,-57,200,-85,312,-85","w":2439},"\u047d":{"d":"473,-1340v36,-192,187,-346,405,-344v89,0,203,34,341,104v138,70,256,105,355,105r0,135v-98,0,-191,-17,-277,-56v-125,-57,-267,-159,-432,-159v-134,0,-219,72,-254,215r-138,0xm952,-1480v0,86,4,186,-31,232v-22,29,-58,55,-111,77r-35,-67v63,-28,82,-31,87,-102r-77,0r0,-140r167,0xm1173,-1086v322,-3,491,228,491,559v0,325,-169,